/* Generated by Edge Impulse
*
* Permission is hereby granted, free of charge, to any person obtaining a copy
* of this software and associated documentation files (the "Software"), to deal
* in the Software without restriction, including without limitation the rights
* to use, copy, modify, merge, publish, distribute, sublicense, and/or sell
* copies of the Software, and to permit persons to whom the Software is
* furnished to do so, subject to the following conditions:
*
* The above copyright notice and this permission notice shall be included in
* all copies or substantial portions of the Software.
*
* THE SOFTWARE IS PROVIDED "AS IS", WITHOUT WARRANTY OF ANY KIND, EXPRESS OR
* IMPLIED, INCLUDING BUT NOT LIMITED TO THE WARRANTIES OF MERCHANTABILITY,
* FITNESS FOR A PARTICULAR PURPOSE AND NONINFRINGEMENT. IN NO EVENT SHALL THE
* AUTHORS OR COPYRIGHT HOLDERS BE LIABLE FOR ANY CLAIM, DAMAGES OR OTHER
* LIABILITY, WHETHER IN AN ACTION OF CONTRACT, TORT OR OTHERWISE, ARISING FROM,
* OUT OF OR IN CONNECTION WITH THE SOFTWARE OR THE USE OR OTHER DEALINGS IN THE
* SOFTWARE.
*/
// Generated on: 23.05.2021 06:39:15

#include <stdio.h>
#include <stdlib.h>
#include <vector>
#include "edge-impulse-sdk/tensorflow/lite/c/builtin_op_data.h"
#include "edge-impulse-sdk/tensorflow/lite/c/common.h"
#include "edge-impulse-sdk/tensorflow/lite/micro/kernels/micro_ops.h"

#if EI_CLASSIFIER_PRINT_STATE
#if defined(__cplusplus) && EI_C_LINKAGE == 1
extern "C" {
    extern void ei_printf(const char *format, ...);
}
#else
extern void ei_printf(const char *format, ...);
#endif
#endif

#if defined __GNUC__
#define ALIGN(X) __attribute__((aligned(X)))
#elif defined _MSC_VER
#define ALIGN(X) __declspec(align(X))
#elif defined __TASKING__
#define ALIGN(X) __align(X)
#endif

namespace {

constexpr int kTensorArenaSize = 608;

#if defined(EI_CLASSIFIER_ALLOCATION_STATIC)
uint8_t tensor_arena[kTensorArenaSize] ALIGN(16);
#elif defined(EI_CLASSIFIER_ALLOCATION_STATIC_HIMAX)
#pragma Bss(".tensor_arena")
uint8_t tensor_arena[kTensorArenaSize] ALIGN(16);
#pragma Bss()
#elif defined(EI_CLASSIFIER_ALLOCATION_STATIC_HIMAX_GNU)
uint8_t tensor_arena[kTensorArenaSize] ALIGN(16) __attribute__((section(".tensor_arena")));
#else
#define EI_CLASSIFIER_ALLOCATION_HEAP 1
uint8_t* tensor_arena = NULL;
#endif

static uint8_t* tensor_boundary;
static uint8_t* current_location;

template <int SZ, class T> struct TfArray {
  int sz; T elem[SZ];
};
enum used_operators_e {
  OP_FULLY_CONNECTED, OP_SOFTMAX,  OP_LAST
};
struct TensorInfo_t { // subset of TfLiteTensor used for initialization from constant memory
  TfLiteAllocationType allocation_type;
  void* data;
  TfLiteIntArray* dims;
  size_t bytes;
};
struct NodeInfo_t { // subset of TfLiteNode used for initialization from constant memory
  struct TfLiteIntArray* inputs;
  struct TfLiteIntArray* outputs;
  void* builtin_data;
  used_operators_e used_op_index;
};

TfLiteContext ctx{};
TfLiteTensor tflTensors[11];
TfLiteRegistration registrations[OP_LAST];
TfLiteNode tflNodes[4];

const TfArray<2, int> tensor_dimension0 = { 2, { 1,33 } };
const ALIGN(8) float tensor_data1[100] = { -0.032098833471536636, 0.23899005353450775, 0.17045548558235168, 0.16179317235946655, 0.16501538455486298, -0.0013977811904624104, 0.15206064283847809, -0.021955974400043488, 0.13861146569252014, -0.0041829664260149002, -0.022569775581359863, 0.038975883275270462, 0.19417484104633331, 0.14375518262386322, 0, 0.12551206350326538, -0.00033735111355781555, 0.14528392255306244, 0.00029447450651787221, 0.1287301629781723, 0.1525736004114151, -0.00089307082816958427, -0.00084438064368441701, 0.16920280456542969, -0.039649456739425659, -0.00046152473078109324, 0.19955044984817505, -0.0013748311903327703, 0.19018387794494629, -0.021363534033298492, 0.078670911490917206, -0.0013318515848368406, 0.14892083406448364, -0.023154141381382942, 0.18153718113899231, 0.18373170495033264, 0.16310536861419678, -0.039767980575561523, 0.1965949684381485, -0.012880943715572357, 0.21991971135139465, 0.16357016563415527, -0.0030008482281118631, 0.16837893426418304, 0, -0.00024952649255283177, 0.17864562571048737, -0.0030020179692655802, -0.00088823988335207105, -0.0090281879529356956, -0.00022375713160727173, 0.098774276673793793, 0.15516796708106995, -0.00083504669601097703, 0.18696765601634979, 0.00016442456399090588, 0.16734649240970612, -0.00033348295255564153, 0.1482185423374176, -0.0092458529397845268, -0.00016546726692467928, 4.3444844777695835e-05, -0.00093821872724220157, 0.1777043491601944, -0.0015601579798385501, -0.00033629042445681989, -0.00022767117479816079, 0.14446508884429932, -0.00042215644498355687, 0.13758662343025208, 0, 0.00047744889161549509, 0.1431485116481781, -0.00099131802562624216, 0.19063878059387207, -0.00081880204379558563, 0.22889117896556854, -0.036398716270923615, -0.0020468414295464754, -0.0011365113314241171, -0.00040451949462294579, -0.0013793219113722444, 0.14863580465316772, 0.16100867092609406, -0.00064471358200535178, 0.14391745626926422, -0.0094290543347597122, 0, 0.14696168899536133, 0.16202010214328766, 0.17875269055366516, 0.12819409370422363, 0.21956175565719604, -0.038286726921796799, 0.19651578366756439, -0.00021808089513797313, -0.031608279794454575, -0.00065876118605956435, -0.013526267372071743, -0.00042030579061247408, };
const TfArray<1, int> tensor_dimension1 = { 1, { 100 } };
const ALIGN(8) float tensor_data2[10] = { 0.12522751092910767, -0.01023376639932394, 0.1180640384554863, 0.055604115128517151, 0.13794057071208954, 0.088235363364219666, 0.12736846506595612, -0.032166920602321625, 0.10554030537605286, 0.11976352334022522, };
const TfArray<1, int> tensor_dimension2 = { 1, { 10 } };
const ALIGN(8) float tensor_data3[4] = { -0.065094210207462311, 0.10680512338876724, -0.023032713681459427, -0.097171150147914886, };
const TfArray<1, int> tensor_dimension3 = { 1, { 4 } };
const ALIGN(8) float tensor_data4[100*33] = { 
  -0.20835597813129425, 0.00037155367317609489, 0.1401083767414093, 0.17791019380092621, 0.13780571520328522, -0.13407976925373077, -0.14041276276111603, -0.14125938713550568, 0.086085282266139984, 0.0053702741861343384, 0.048568446189165115, 0.030119273811578751, 0.00079551257658749819, -0.065553523600101471, 0.15028659999370575, 0.18902398645877838, 0.14099816977977753, 0.06330716609954834, 0.15179240703582764, -0.11524324864149094, -0.20043760538101196, -0.17474289238452911, -0.016801226884126663, 0.005626206286251545, 0.10897248983383179, -0.23702280223369598, 0.13389703631401062, -0.093709290027618408, 0.11312194913625717, 0.15607470273971558, 0.09129054844379425, 0.1040506586432457, -0.09333096444606781, 
  0.052218697965145111, 0.17190326750278473, 0.1356518417596817, -0.090544439852237701, -0.0083175674080848694, -0.12288355827331543, 0.17414410412311554, 0.2100723534822464, -0.086389772593975067, -0.15819711983203888, 0.15077885985374451, -0.019996386021375656, 0.14759628474712372, -0.092349432408809662, -0.21362611651420593, 0.021053416654467583, 0.14419856667518616, -0.03868219256401062, 0.1943693608045578, 0.1898166686296463, -0.0052340277470648289, 0.18591770529747009, -0.11934877932071686, -0.18763746321201324, 0.080466233193874359, -0.2052091658115387, 0.01922210305929184, 0.12991170585155487, 0.074646309018135071, -0.040913723409175873, 0.036706652492284775, -0.02296832948923111, -0.013924780301749706, 
  -0.0057771275751292706, 0.030792916193604469, -0.079319626092910767, -0.14578087627887726, 0.14905528724193573, 0.14717115461826324, -0.16980601847171783, 0.041221953928470612, 0.13145831227302551, -0.0056575238704681396, 0.20447328686714172, 0.072836630046367645, 0.077097475528717041, -0.19296650588512421, 0.16548006236553192, 0.10282669216394424, 0.014739365316927433, 0.16578428447246552, -0.09750860184431076, 0.038081604987382889, -0.18971280753612518, 0.13323552906513214, 0.046106703579425812, 0.010589436627924442, 0.26282677054405212, -0.051459580659866333, 0.14079353213310242, -0.016005925834178925, -0.0090874703601002693, -0.12888769805431366, 0.21199904382228851, 0.016574736684560776, 0.062457803636789322, 
  -0.19930949807167053, 0.084579460322856903, -0.0022483228240162134, -0.064117096364498138, -0.17832466959953308, 0.16568838059902191, -0.02729148231446743, 0.13731719553470612, -0.0071199405938386917, -0.16722120344638824, 0.1865437775850296, -0.16378225386142731, -0.16019810736179352, 0.013382685370743275, 0.12070609629154205, -0.15113300085067749, 0.093615956604480743, 0.080220155417919159, -0.063333936035633087, -0.22612889111042023, -0.10120618343353271, 0.034138936549425125, 0.13858112692832947, 0.15925468504428864, 0.1312154084444046, -0.09955325722694397, -0.066359095275402069, -0.034317426383495331, 0.094628296792507172, 0.20858748257160187, 0.18649545311927795, -0.0015612845309078693, 0.042539585381746292, 
  0.015806173905730247, 0.17243871092796326, 0.067408159375190735, -0.012591785751283169, 0.030709313228726387, -0.095804423093795776, 0.013938753865659237, -0.071868821978569031, 0.10798525810241699, -0.0077501386404037476, 0.087070681154727936, -0.053015056997537613, -0.16496975719928741, -0.026540705934166908, -0.097877494990825653, 0.062233783304691315, -0.064517483115196228, -0.021719025447964668, -0.15452662110328674, 5.1988195082230959e-06, -0.1260668933391571, 0.029013056308031082, 0.096784189343452454, 0.027504608035087585, -0.11755374819040298, 0.16551336646080017, -0.12270654737949371, -0.16161957383155823, 0.032536793500185013, 0.061203457415103912, -0.10770700871944427, -0.1047799289226532, -0.052452206611633301, 
  0.20057104527950287, 0.22983208298683167, -0.0077667436562478542, 0.1738462895154953, -0.010391444899141788, 0.12717194855213165, 0.1661253422498703, 0.18336868286132812, 0.047268874943256378, 0.19332262873649597, -0.01164515595883131, 0.26874753832817078, 0.092893250286579132, 0.1349235475063324, -0.088869720697402954, -0.063979186117649078, -0.051376409828662872, 0.29269412159919739, 0.18604433536529541, 0.11183964461088181, 0.12584701180458069, -0.00055292737670242786, -0.03514525294303894, 0.031902141869068146, -0.18504227697849274, 0.20226125419139862, 0.050050731748342514, -0.052828960120677948, 0.10729791969060898, 0.091221675276756287, -0.16993704438209534, -0.24327929317951202, 0.072377592325210571, 
  -0.13545575737953186, 0.072445571422576904, -0.15835466980934143, 0.078191705048084259, 0.074626229703426361, 0.016422955319285393, 0.082885682582855225, -0.09206128865480423, 0.147101029753685, -0.015275467187166214, 0.096482537686824799, 0.067042753100395203, 0.11845605820417404, -0.21857470273971558, -0.14528200030326843, -0.11650125682353973, 0.058176152408123016, -0.1517130434513092, -0.11474227905273438, 0.0066473460756242275, 0.023859744891524315, -0.18525198101997375, 0.2519439160823822, 0.13125701248645782, 0.19519293308258057, 0.092032752931118011, -0.045227352529764175, 0.1574588418006897, 0.14164347946643829, 0.1855006068944931, 0.026911269873380661, 0.12391959130764008, -0.14634513854980469, 
  -0.10730122029781342, 0.1765664666891098, 0.095102101564407349, -0.049297790974378586, -0.096235290169715881, -0.18033386766910553, -0.18610678613185883, 0.029133506119251251, -0.014640295878052711, 0.11895120888948441, 0.14984701573848724, 0.006842826958745718, -0.053472261875867844, 0.054180905222892761, -0.22545771300792694, 0.087196320295333862, 0.14635920524597168, 0.072133176028728485, -0.20864428579807281, -0.16426782310009003, -0.1910838782787323, 0.040356773883104324, 0.13460779190063477, 0.10212478041648865, -0.0025693743955343962, 0.15443414449691772, -0.056717168539762497, -0.15165114402770996, -0.16916953027248383, 0.023945149034261703, -0.24249410629272461, -0.037443146109580994, 0.03972901776432991, 
  0.11088050156831741, 0.14691640436649323, -0.16156919300556183, -0.078782834112644196, 0.019752463325858116, 0.20984315872192383, -0.03698025643825531, 0.11077343672513962, 0.15752865374088287, 0.056583378463983536, -0.17352378368377686, 0.051114074885845184, 0.012593931518495083, 0.23589560389518738, 0.12584260106086731, 0.23977340757846832, -0.051820762455463409, 0.020912859588861465, 0.21602749824523926, 0.13684980571269989, 0.21747064590454102, 0.13899025321006775, -0.039421413093805313, -0.083158120512962341, -0.09599507600069046, -0.10268509387969971, -0.037387561053037643, -0.086969956755638123, 0.12524150311946869, 0.02154906839132309, 0.093989603221416473, 0.11581339687108994, -0.059185527265071869, 
  0.0077255205251276493, -0.0033916130196303129, 0.025019485503435135, -0.078860931098461151, 0.14699549973011017, -0.13980987668037415, -0.14920207858085632, 0.20059649646282196, -0.12666800618171692, -0.14125548303127289, -0.034718602895736694, -0.18207237124443054, -0.11755406111478806, 0.19210220873355865, 0.029466051608324051, 0.014176076278090477, 0.024096783250570297, 0.11772357672452927, -0.15402856469154358, -0.010000001639127731, 0.051507808268070221, -0.049204282462596893, -0.15617990493774414, 0.03602837398648262, 0.06810230016708374, 0.0039892117492854595, 0.14410695433616638, 0.21738705039024353, 0.069672293961048126, 0.041434869170188904, 0.069817252457141876, -0.081050917506217957, 0.10745418816804886, 
  -0.19015578925609589, -0.093485243618488312, -0.0052834195084869862, -0.17312969267368317, -0.13360847532749176, 0.048203662037849426, 0.18271999061107635, 0.06327299028635025, -0.10607109218835831, 0.12093172967433929, 0.16839723289012909, -0.15607985854148865, -0.13959385454654694, -0.12624077498912811, -0.1090264692902565, -0.12237072736024857, 0.12071099877357483, 0.084923386573791504, 0.12697751820087433, -0.14104023575782776, -0.13994830846786499, 0.046186480671167374, -0.035618770867586136, -0.10669763386249542, 0.065895386040210724, 0.083139136433601379, -0.11395929753780365, 0.11949259787797928, 0.079965956509113312, -0.0013246908783912659, 0.069412007927894592, 0.07945772260427475, 0.084344446659088135, 
  0.20825982093811035, 0.23664632439613342, -0.010973080061376095, 0.11794386059045792, 0.12602601945400238, -0.15090897679328918, -0.16465809941291809, -0.12795734405517578, -0.048897594213485718, 0.015270477160811424, -0.023220807313919067, -0.064841531217098236, -0.039949916303157806, 0.17196196317672729, -0.1185782328248024, 0.086571060121059418, -0.12644614279270172, -0.031976722180843353, 0.030173161998391151, -0.11929567903280258, -0.15301664173603058, 0.1582319587469101, -0.020054202526807785, 0.017704257741570473, 0.1012292206287384, 0.063487477600574493, 0.2030913233757019, 0.18024140596389771, 0.15165995061397552, 0.13655781745910645, 0.035644467920064926, -0.036137182265520096, -0.19487492740154266, 
  0.048624653369188309, -0.10555195808410645, -0.047783572226762772, -0.23861129581928253, -0.22799704968929291, -0.045222166925668716, 0.12306082248687744, -0.12329794466495514, -0.039476178586483002, -0.11267118901014328, -0.08765091747045517, 0.10198448598384857, -0.19689886271953583, 0.091060064733028412, -0.24397188425064087, 0.10789062827825546, -0.0099485330283641815, 0.10916116833686829, 0.13413220643997192, 0.15679119527339935, 0.10458949953317642, 0.11764895170927048, -0.1119326651096344, 0.14464747905731201, -0.065334230661392212, 0.10713336616754532, -0.050786226987838745, -0.16110026836395264, 0.027477385476231575, -0.0025706500746309757, 0.20102159678936005, -0.038003377616405487, 0.10858652740716934, 
  0.032929752022027969, -0.03158843144774437, 0.21810446679592133, 0.057882267981767654, -0.20644648373126984, 0.15791788697242737, -0.19647520780563354, 0.11425244063138962, -0.054603327065706253, 0.042085722088813782, -0.14609314501285553, 0.16096280515193939, -0.008283691480755806, 0.17576465010643005, 0.16199098527431488, -0.12647639214992523, 0.074561409652233124, 0.14251089096069336, -0.011840043589472771, 0.0016679443651810288, -0.11558068543672562, -0.08241705596446991, 0.13118836283683777, -0.10189472138881683, -0.19654594361782074, 0.037609171122312546, -0.13278214633464813, -0.096475414931774139, 0.18991328775882721, -0.043781757354736328, -0.015047186985611916, -0.032464906573295593, 0.024452334269881248, 
  -0.12423716485500336, -0.071942359209060669, -0.17727687954902649, -0.032779544591903687, 0.045259445905685425, 0.0082510113716125488, 0.032791644334793091, -0.20267210900783539, -0.00056098401546478271, -0.00188484787940979, -0.15813249349594116, -0.096798725426197052, -0.20603969693183899, 0.015649393200874329, 0.14892935752868652, 0.057955145835876465, 0.09892001748085022, 0.12551316618919373, 0.060222327709197998, -0.015927508473396301, -0.11473976820707321, -0.15136528015136719, -0.20639260113239288, -0.09916040301322937, -0.063560232520103455, -0.17721936106681824, -0.15610852837562561, 0.088592797517776489, 0.11145168542861938, 0.013525262475013733, 0.20209613442420959, -0.10116573423147202, 0.18092894554138184, 
  -0.12667909264564514, 0.21551094949245453, -0.11258883774280548, -0.13591523468494415, 0.049723118543624878, -0.071272239089012146, -0.17812596261501312, -0.089853137731552124, 0.13899847865104675, 0.13196006417274475, -0.051738474518060684, 0.15663862228393555, 0.13547103106975555, 0.14202342927455902, 0.18084290623664856, 0.19761788845062256, 0.074170477688312531, -0.15673910081386566, -0.13797719776630402, 0.0075001399964094162, -0.05277971550822258, 0.23116660118103027, 0.13492676615715027, -0.054939761757850647, 0.012144178152084351, -0.039369009435176849, -0.12436521798372269, -0.075393177568912506, -0.15913833677768707, 0.0071592871099710464, -0.24816013872623444, -0.25978785753250122, -0.24753890931606293, 
  -0.16665269434452057, 0.026496866717934608, -0.0070730708539485931, 0.11987984180450439, -0.071307532489299774, 0.095924608409404755, 0.016162361949682236, 0.02563069574534893, 0.0077615673653781414, 0.020176075398921967, 0.19683742523193359, -0.0010466533713042736, -0.052070662379264832, -0.10333395004272461, -0.031269252300262451, -0.18819671869277954, 0.093674607574939728, 0.080610968172550201, -0.2350023090839386, -0.14852240681648254, 0.1698504239320755, 0.017369598150253296, 0.19835896790027618, -0.098860837519168854, 0.11214246600866318, 0.041582841426134109, 0.22307048738002777, -0.16452734172344208, 0.076103068888187408, -0.0035653179511427879, 0.15958181023597717, -0.085137374699115753, 0.18215981125831604, 
  -0.027887310832738876, -0.075237728655338287, 0.080793730914592743, -0.027849083766341209, -0.1371288001537323, -0.022068694233894348, 0.11547238379716873, -0.13768720626831055, -0.11026938259601593, 0.25442436337471008, -0.015156368725001812, -0.15842632949352264, 0.19192361831665039, -0.091865465044975281, 0.19129353761672974, 0.15498080849647522, 0.095541760325431824, -0.05170106515288353, 0.0017025623237714171, -0.10180496424436569, 0.020984956994652748, -0.058439396321773529, 0.22397728264331818, 0.095424734055995941, 0.045790147036314011, -0.063823901116847992, -0.041666027158498764, 0.14751186966896057, 0.22538679838180542, 0.17715384066104889, 0.13093812763690948, -0.1166640892624855, 0.1299198716878891, 
  -0.11103029549121857, 0.10325662791728973, -0.15188926458358765, 0.16867698729038239, 0.1676858514547348, -0.13966983556747437, 0.14291946589946747, 0.15551385283470154, -0.058263152837753296, 0.16193348169326782, 0.0495489202439785, -0.16423666477203369, 0.058744311332702637, 0.055611114948987961, 0.10325025022029877, -0.11369646340608597, -0.13060082495212555, -0.086383990943431854, -0.13575421273708344, 0.18853208422660828, -0.17896243929862976, 0.093943603336811066, -0.0029994780197739601, 0.11888739466667175, 0.10908155143260956, -0.028591567650437355, 0.21735705435276031, 0.050126001238822937, 0.13278891146183014, -0.10480409860610962, 0.1142062321305275, 0.20995508134365082, 0.22070261836051941, 
  -0.039848290383815765, 0.025901665911078453, -0.027665857225656509, 0.10085317492485046, -0.042874284088611603, 0.19676351547241211, -0.1804356724023819, 0.039153408259153366, -0.16446727514266968, 0.051695220172405243, 0.18865954875946045, 0.040640514343976974, 0.081519782543182373, 0.20638735592365265, 0.18075005710124969, 0.17150221765041351, 0.034774687141180038, 0.243358314037323, -0.031051546335220337, 0.19398431479930878, -0.0044940738007426262, -0.082000739872455597, -0.17644067108631134, -0.17510361969470978, -0.077613309025764465, 0.21111588180065155, -0.18820379674434662, -0.052804768085479736, -0.1226690411567688, -0.18186524510383606, 0.098714239895343781, -0.2479538768529892, -0.22404392063617706, 
  -0.14816644787788391, -0.1796095222234726, -0.10977280884981155, 0.19170957803726196, -0.18011504411697388, -0.15828225016593933, -0.16859279572963715, -0.12346477061510086, 0.18280550837516785, -0.065335161983966827, 0.16414040327072144, 0.012854987755417824, -0.053034257143735886, 0.088212527334690094, -0.10978693515062332, 0.11883958429098129, 0.081764549016952515, -0.094663336873054504, -0.17366431653499603, 0.035617098212242126, -0.12357929348945618, 0.057631328701972961, 0.006122552789747715, 0.11211510747671127, 0.13467960059642792, 0.18159671127796173, -0.17915663123130798, -0.069870077073574066, -0.061869889497756958, 0.050009433180093765, 0.14213882386684418, 0.056589964777231216, -0.053575105965137482, 
  0.21507628262042999, 0.29146763682365417, 0.066643178462982178, 0.075596250593662262, 0.0093351276591420174, 0.12258265912532806, 0.29209139943122864, 0.090801306068897247, 0.21322427690029144, 0.22354191541671753, 0.32178014516830444, -0.015768509358167648, 0.16946913301944733, 0.24185267090797424, 0.22200386226177216, -0.0053575490601360798, 0.0086853951215744019, -0.020388521254062653, 0.15743719041347504, 0.20025449991226196, 0.32175633311271667, -0.012815345078706741, 0.036112472414970398, -0.023225098848342896, 0.018949372693896294, -0.064097687602043152, -0.02882927842438221, 0.16440355777740479, 0.14531239867210388, -0.25709250569343567, -0.23589587211608887, -0.19327698647975922, -0.18492141366004944, 
  -0.071835294365882874, -0.09524960070848465, 0.082677856087684631, -0.063830547034740448, 0.059535417705774307, 0.060255959630012512, 0.2043982595205307, 0.16271774470806122, 0.10516432672739029, 0.27884954214096069, 0.12359461933374405, 0.27662518620491028, -0.1016685888171196, 0.049505274742841721, 0.16799771785736084, -0.041277829557657242, -0.003723380621522665, 0.066504217684268951, 0.18548589944839478, 0.28450962901115417, 0.1967267245054245, 0.0095769679173827171, 0.11171185225248337, 0.25043278932571411, 0.20338244736194611, 0.024636371061205864, -0.010405050590634346, -0.065685383975505829, -0.064637035131454468, -0.20302589237689972, -0.21847337484359741, 0.047519810497760773, 0.03016175888478756, 
  0.10663661360740662, -0.12002971023321152, -0.15295247733592987, -0.02043486014008522, -0.090686403214931488, 0.046892579644918442, 0.20431400835514069, 0.04258863627910614, -0.094742536544799805, 0.18526482582092285, -0.10586727410554886, 0.27272847294807434, -0.084821164608001709, -0.024926578626036644, -0.029621230438351631, -0.10740321129560471, -0.10395518690347672, 0.19669879972934723, -0.12604472041130066, -0.16914349794387817, -0.076441772282123566, 0.02607746422290802, -0.01491185836493969, -0.013104652054607868, -0.22964620590209961, -0.11159046739339828, -0.055914316326379776, 0.19516876339912415, 0.22346977889537811, 0.041954435408115387, 0.0068152174353599548, -0.082746252417564392, 0.13425116240978241, 
  0.064153686165809631, -0.20209877192974091, -0.045750651508569717, -0.13787850737571716, -0.1323881596326828, 0.13686741888523102, -0.15479901432991028, 0.067057602107524872, -0.22275641560554504, 0.1223200261592865, -0.24313752353191376, 0.077297382056713104, 0.013364817947149277, -0.0098148584365844727, -0.066514924168586731, 0.028447560966014862, 0.073293894529342651, -0.053466085344552994, 0.037155359983444214, -0.18755492568016052, -0.076501108705997467, -0.19948501884937286, 0.13320286571979523, 0.080582268536090851, -0.02902538888156414, 0.16278105974197388, 0.048513416200876236, -0.16234931349754333, 0.17752505838871002, -0.05686362087726593, 0.050248332321643829, -0.031654711812734604, 0.17356325685977936, 
  -0.089294552803039551, 0.039786413311958313, -0.11112833768129349, -0.10554612427949905, -0.16593542695045471, 0.055250182747840881, 0.19165100157260895, 0.021869579330086708, 0.10780086368322372, -0.17876073718070984, 0.062669530510902405, 0.025203170254826546, 0.018990727141499519, 0.096854187548160553, -0.069678954780101776, 0.022757735103368759, 0.022773800417780876, -0.10149876028299332, 0.029583394527435303, 0.10019134730100632, -0.0555235855281353, -0.04366573691368103, 0.22989007830619812, -0.0021578972227871418, 0.020984884351491928, 0.16151447594165802, 0.15162286162376404, -0.038885653018951416, 0.019159901887178421, -0.001713465666398406, 0.21295283734798431, 0.088894173502922058, 0.14342190325260162, 
  0.23459705710411072, 0.050484459847211838, -0.11545854806900024, -0.031353946775197983, 0.001991218188777566, -0.079167917370796204, -0.049813464283943176, 0.094869300723075867, 0.058991838246583939, 0.20303782820701599, 0.075663387775421143, -0.10581715404987335, -0.07085709273815155, 0.070748373866081238, 0.13174055516719818, 0.028696045279502869, 0.008546723984181881, -0.11451316624879837, -0.0058540399186313152, 0.18415358662605286, -0.038057923316955566, 0.07879137247800827, 0.13266150653362274, -0.20153811573982239, -0.00099247926846146584, 0.2099870890378952, -0.11782664060592651, -0.096255593001842499, -0.10348907113075256, -0.027773534879088402, -0.0074028274975717068, -0.024687269702553749, 0.1521507203578949, 
  0.27735212445259094, 0.067756906151771545, -0.042511273175477982, 0.034133158624172211, -0.11323372274637222, 0.18060596287250519, 0.19892251491546631, -0.13256390392780304, -0.10391061007976532, 0.17032325267791748, 0.14636228978633881, 0.040517017245292664, 0.14826697111129761, 0.11647605150938034, 0.21901299059391022, 0.048652470111846924, 0.18511825799942017, 0.13728155195713043, -0.13125622272491455, -0.13423988223075867, 0.0036333650350570679, 0.0059266830794513226, 0.09074576199054718, 0.027138154953718185, 0.25198453664779663, -0.040498077869415283, -0.14848464727401733, 0.18152029812335968, 0.028517706319689751, -0.034147355705499649, -0.020307265222072601, 0.093505926430225372, 0.18866534531116486, 
  0.084193021059036255, -0.029696773737668991, 0.18865205347537994, 0.078225620090961456, -0.027306973934173584, -0.18500645458698273, 0.06214899942278862, -0.06654772162437439, -0.22440601885318756, 0.10483958572149277, -0.1697453111410141, -0.18962182104587555, 0.17938563227653503, -0.23188342154026031, -0.083341948688030243, 0.13124638795852661, -0.036430835723876953, 0.10399486869573593, -0.085321612656116486, -0.094496302306652069, 0.056992832571268082, 0.029424875974655151, 0.0016212929040193558, 0.15520627796649933, 0.074390947818756104, -0.068697109818458557, -0.12635645270347595, 0.15819172561168671, -0.083926543593406677, 0.17840607464313507, 0.26425769925117493, -0.081920690834522247, -0.0074911951087415218, 
  0.017556570470333099, -0.037331406027078629, -0.090799212455749512, 0.034372061491012573, -0.15471066534519196, -0.085606299340724945, 0.047438003122806549, -0.038517050445079803, -0.094522282481193542, 0.11707774549722672, 0.18746478855609894, -0.18511469662189484, -0.095933124423027039, 0.17106640338897705, -0.10679236799478531, 0.11592060327529907, -0.17838142812252045, -0.068592295050621033, 0.036288391798734665, 0.0014338104519993067, 0.0055250320583581924, -0.20307870209217072, 0.0083962427452206612, 0.15467676520347595, -0.049454323947429657, 0.041771866381168365, 0.12118764966726303, -0.12463884055614471, 0.18968674540519714, -0.060436222702264786, -0.11289610713720322, -0.15508747100830078, 0.015720417723059654, 
  -0.14119566977024078, 0.11568945646286011, 0.21283258497714996, -0.083950906991958618, 0.045709807425737381, -0.13504774868488312, -0.0059893010184168816, -0.052159767597913742, 0.033234395086765289, 0.07053820788860321, -0.081647917628288269, 0.076023489236831665, 0.083519570529460907, 0.21992990374565125, 0.0019399767043069005, -0.12238845229148865, 0.22752818465232849, 0.15262706577777863, 0.0022390829399228096, 0.20308478176593781, -0.01451463345438242, 0.25639206171035767, 0.054582089185714722, -0.099740095436573029, -0.062571018934249878, -0.049952398985624313, -0.069612592458724976, 0.010725479573011398, -0.061543338000774384, -0.08873952180147171, -0.16492040455341339, -0.18271543085575104, -0.10245152562856674, 
  0.18525806069374084, 0.11956091225147247, 0.23928177356719971, 0.089607268571853638, -0.026213722303509712, -0.0074088573455810547, 0.12303906679153442, 0.24402379989624023, 0.029107313603162766, -0.13930788636207581, 0.050309240818023682, 0.22829015552997589, 0.035789042711257935, 0.21381804347038269, -0.04668334499001503, -0.081888206303119659, -0.0048546283505856991, 0.20342621207237244, 0.21742787957191467, 0.065417841076850891, -0.0052640070207417011, -0.063491977751255035, -0.035946786403656006, -0.038135472685098648, 0.15685911476612091, 0.063654743134975433, 0.15402956306934357, -0.024794068187475204, -0.2068447470664978, -0.074976585805416107, -0.24909244477748871, 0.031248556450009346, -0.11916949599981308, 
  0.16314332187175751, 0.059243720024824142, -0.087506547570228577, 0.11510021984577179, -0.023010920733213425, -0.12994857132434845, -0.060440797358751297, -0.07694651186466217, 0.09105970710515976, 0.14035546779632568, -0.045407705008983612, 0.14371883869171143, -0.11260821670293808, 0.17965370416641235, -0.15004189312458038, -0.0012146965600550175, -0.033655069768428802, -0.151622474193573, 0.1004597395658493, -0.18465767800807953, 0.19322200119495392, 0.047606401145458221, 0.1803804486989975, 0.050677698105573654, 0.047137245535850525, 0.13727486133575439, -0.1172928512096405, 0.17996776103973389, -0.1746227890253067, -0.13755851984024048, -0.046200413256883621, 0.21051082015037537, 0.16961520910263062, 
  0.029595913365483284, 0.079957753419876099, 0.16187027096748352, -0.14216116070747375, -0.098239235579967499, 0.098487362265586853, 0.1948314905166626, 0.1689898669719696, -0.029391814023256302, -0.13509069383144379, -0.14821265637874603, 0.016690220683813095, -0.015040424652397633, 0.048470135778188705, -0.18332089483737946, 0.057854779064655304, -0.12783141434192657, 0.1169096827507019, 0.10827623307704926, 0.10880447924137115, -0.031933091580867767, 0.081851407885551453, -0.19042834639549255, -0.12989135086536407, 0.010333141312003136, -0.078465469181537628, -0.025965377688407898, -0.10923347622156143, -0.18777693808078766, -0.18311648070812225, -0.07116834819316864, 0.082585558295249939, -0.11790046840906143, 
  -0.19591037929058075, 0.097444653511047363, -0.046169042587280273, -0.12061022222042084, 0.091444522142410278, -0.14957614243030548, -0.0016336404951289296, 0.05461878702044487, -0.19692452251911163, 0.1202533096075058, 0.0060327174142003059, -0.078249812126159668, 0.12001246958971024, 0.11727503687143326, -0.030487596988677979, 0.1650141179561615, -0.2176336944103241, -0.078628957271575928, 0.2072259783744812, -0.21417443454265594, -0.10641684383153915, -0.10253120213747025, 0.098470635712146759, 0.095957890152931213, -0.086658962070941925, -0.19748769700527191, -0.057164251804351807, -0.10348829627037048, 0.031891528517007828, -0.085551843047142029, -0.21734750270843506, -0.19250543415546417, -0.12286242842674255, 
  0.16266708076000214, -0.14129336178302765, 0.056302890181541443, -0.029265303164720535, -0.1141844317317009, 0.10436905175447464, -0.19969581067562103, -0.096631363034248352, -0.16646890342235565, -0.23972390592098236, 0.081996142864227295, -0.067689515650272369, -0.10780392587184906, -0.15851642191410065, -0.051841247826814651, -0.11475343257188797, 0.1724766343832016, -0.12839594483375549, -0.058613881468772888, -0.23627981543540955, -0.23320730030536652, -0.12201085686683655, 0.13886849582195282, -0.12284259498119354, 0.21644499897956848, 0.026660101488232613, -0.010585094802081585, 0.015328230336308479, -0.038490429520606995, -0.0093887830153107643, -0.0020428849384188652, 0.19291248917579651, 0.10478493571281433, 
  0.25511413812637329, 0.1013115793466568, -0.13957954943180084, 0.24348920583724976, -0.12836076319217682, -0.0035271917004138231, 0.063287243247032166, -0.047593019902706146, 0.15508919954299927, 0.080958589911460876, 0.13084597885608673, -0.026262499392032623, 0.042757581919431686, 0.094147123396396637, -0.05041256919503212, 0.27273795008659363, 0.22841942310333252, 0.063248179852962494, 0.2967628538608551, 0.25721797347068787, 0.25181278586387634, -0.1246236264705658, -0.1595534086227417, -0.039560165256261826, -0.30688288807868958, -0.011975615285336971, 0.19500517845153809, -0.14568518102169037, 0.18789401650428772, -0.20131319761276245, -0.15848730504512787, -0.19120654463768005, 0.18343755602836609, 
  -0.031511541455984116, 0.0023226120974868536, 0.049082979559898376, -0.021819265559315681, -0.093377217650413513, -0.16655336320400238, 0.019446022808551788, 0.14757439494132996, 0.090104006230831146, 0.096905149519443512, 0.10089117288589478, -0.0456131212413311, -0.087238915264606476, -0.092810362577438354, 0.10970988869667053, -0.20248390734195709, -0.23263493180274963, 0.17064359784126282, -0.18223172426223755, 0.087792530655860901, 0.21029286086559296, -0.065175861120223999, 0.14442571997642517, 0.010597899556159973, 0.063736587762832642, -0.17185835540294647, 0.047590561211109161, -0.13035379350185394, -0.21410192549228668, 0.060807537287473679, 0.11568254977464676, -0.028234396129846573, -0.0082616209983825684, 
  0.058077681809663773, -0.022617872804403305, -0.16352637112140656, -0.093946866691112518, -0.19752269983291626, 0.13139538466930389, 0.055903911590576172, 0.071854352951049805, -0.22909386456012726, -0.18271096050739288, -0.18645772337913513, 0.097657091915607452, -0.071760363876819611, -0.17470589280128479, -0.12334471940994263, -0.13446488976478577, 0.098025739192962646, -0.0074287978932261467, 0.17348615825176239, 0.014028364792466164, -0.1279245913028717, -0.12762786448001862, 0.19800044596195221, 0.15262135863304138, -0.075593546032905579, -0.19812923669815063, -0.18231996893882751, -0.11515253037214279, -0.082936197519302368, 0.037675727158784866, -0.17238476872444153, -0.19359377026557922, 0.16366630792617798, 
  0.09167470782995224, -0.011295038275420666, 0.15415392816066742, 0.030749209225177765, 0.11120292544364929, 0.0053996979258954525, -0.15513409674167633, 0.18274779617786407, -0.062534943222999573, -0.025837492197751999, 0.15397721529006958, 0.15840801596641541, -0.16570259630680084, 0.18221087753772736, -0.13046446442604065, 0.093902811408042908, 0.16849750280380249, -0.029277630150318146, -0.016542531549930573, 0.059638630598783493, 0.03455004096031189, 0.0055616209283471107, -0.14640727639198303, -0.10225952416658401, 0.037134550511837006, -0.15086108446121216, 0.17679525911808014, -0.077382110059261322, 0.010722479782998562, 0.00065647170413285494, -0.085354961454868317, -0.1183435469865799, 0.032682739198207855, 
  -0.12353008240461349, -0.089637055993080139, -0.13588891923427582, -0.0071711973287165165, 0.21039468050003052, 0.070267587900161743, 0.0507085882127285, 0.086035236716270447, 0.065973483026027679, 0.073894940316677094, -0.2126658707857132, 0.019611101597547531, -0.051985133439302444, 0.15815970301628113, 0.018894223496317863, 0.20729643106460571, 0.070948556065559387, 0.10749971121549606, 0.079316779971122742, 0.089534610509872437, 0.20057882368564606, -0.11451926827430725, -0.19077393412590027, 0.098214149475097656, 0.021125806495547295, -0.080515816807746887, -0.055820856243371964, 0.16387321054935455, -0.22510382533073425, -0.21613426506519318, -0.10659970343112946, -0.031808897852897644, -0.22520400583744049, 
  0.023933691903948784, 0.19114430248737335, -0.028617821633815765, -0.12820121645927429, -0.1443818211555481, 0.078109249472618103, -0.22558638453483582, 0.12467759102582932, 0.042533811181783676, -0.00099603866692632437, -0.1780538409948349, 0.19733168184757233, -0.094785735011100769, -0.15333585441112518, -0.03667810931801796, -0.16102410852909088, -0.19930578768253326, 0.16086640954017639, -0.19213005900382996, 0.1568385511636734, -0.14511215686798096, 0.049322109669446945, 0.13255862891674042, -0.18602488934993744, 0.068654067814350128, 0.17914755642414093, -0.11093388497829437, 0.16649255156517029, 0.01646885834634304, 0.081413276493549347, -0.088832080364227295, 0.029080400243401527, 0.1258254200220108, 
  -0.16766159236431122, -0.049809113144874573, -0.15475417673587799, -0.049471244215965271, -0.10530318319797516, -0.10797609388828278, -0.18321923911571503, -0.029622718691825867, -0.0078563997521996498, -0.053622867912054062, 0.038024481385946274, 0.052496872842311859, -0.18446289002895355, 0.0171089768409729, -0.077902927994728088, -0.052644535899162292, -0.1514965295791626, 0.11037361621856689, -0.20076577365398407, -0.022692302241921425, 0.13092151284217834, 0.18043336272239685, 0.041402105242013931, -0.13690996170043945, 0.12047317624092102, -0.16832400858402252, 0.0087606459856033325, -0.076966911554336548, 0.023192465305328369, -0.062279529869556427, -0.13491339981555939, -0.20793937146663666, 0.16488282382488251, 
  -0.18451611697673798, 0.040842015296220779, 0.0087277079001069069, -0.034290336072444916, 0.2153635174036026, -0.044870089739561081, 0.026527207344770432, -0.075387470424175262, -0.097247883677482605, -0.20719042420387268, -0.10147025436162949, -0.035816527903079987, -0.03188256174325943, -0.25300672650337219, 0.015300453640520573, 0.091616824269294739, -0.069644659757614136, -0.073530577123165131, -0.14193394780158997, -0.15693049132823944, -0.23559889197349548, -0.15916414558887482, -0.045069411396980286, 0.052977684885263443, 0.23281945288181305, 0.18793356418609619, 0.18821676075458527, 0.041005212813615799, 0.04312562569975853, 0.0069654956459999084, 0.092702202498912811, -0.12758135795593262, -0.12761776149272919, 
  -0.1262841671705246, -0.081938505172729492, -0.01377694308757782, -0.092883124947547913, -0.080727145075798035, 0.085223227739334106, -0.10473480820655823, 0.10785815119743347, -0.13757157325744629, 0.1585056483745575, 0.040016651153564453, -0.16183161735534668, -0.069024249911308289, -0.13580790162086487, -0.026214376091957092, 0.052411735057830811, 0.12001878023147583, -0.095912076532840729, 0.07562565803527832, 0.083747804164886475, -0.12625555694103241, -0.067091897130012512, -0.10501408576965332, 0.19701409339904785, -0.17264802753925323, -0.18403260409832001, 0.019199639558792114, -0.21087354421615601, 0.036054402589797974, 0.15142306685447693, 0.028600111603736877, -0.21047668159008026, -0.059898436069488525, 
  -0.012283838354051113, 0.07308071106672287, 0.2129298597574234, 0.077755950391292572, -0.014469233341515064, -0.044505905359983444, 0.026541514322161674, 0.095631368458271027, 0.23270398378372192, 0.14678303897380829, -0.022063275799155235, -0.090294189751148224, 0.19050520658493042, 0.069277144968509674, -0.082618854939937592, 0.19688740372657776, 0.040578935295343399, 0.033808145672082901, -0.19427116215229034, 0.22232204675674438, 0.011685340665280819, -0.1632174551486969, 0.20849034190177917, -0.095780022442340851, 0.12169278413057327, -0.08439549058675766, -0.068926803767681122, 0.099337279796600342, -0.10734228044748306, -0.070041745901107788, -0.075100570917129517, -0.10069581121206284, 0.082237333059310913, 
  -0.045571796596050262, -0.019781528040766716, -0.23768451809883118, 0.12316815555095673, 0.21660569310188293, 0.052810534834861755, -0.1194615364074707, 0.10126860439777374, -0.23776192963123322, 0.12700508534908295, 0.13129134476184845, 0.049431551247835159, 0.062545724213123322, -0.10685010254383087, 0.0091630024835467339, 0.067166805267333984, -0.048578884452581406, 0.16166740655899048, -0.04220150038599968, -0.20633099973201752, 0.069597445428371429, -0.22701185941696167, 0.16561330854892731, -0.17419777810573578, 0.061839886009693146, -0.026763379573822021, 0.012388559058308601, -0.10997263342142105, -0.10567168891429901, 0.11495284736156464, 0.060798525810241699, 0.13402923941612244, -0.006013793870806694, 
  -0.14442241191864014, -0.19509299099445343, -0.1513901948928833, -0.1657269150018692, -0.20188294351100922, 0.064225882291793823, -0.18500503897666931, 0.046484522521495819, 0.13225725293159485, 0.16413946449756622, -0.095891490578651428, 0.18181781470775604, 0.061711996793746948, -0.14372417330741882, -0.069403037428855896, 0.012486696243286133, -0.02244219183921814, -0.16933964192867279, -0.20389926433563232, -0.15846401453018188, -0.18962311744689941, 0.14162600040435791, 0.13840357959270477, 0.16813269257545471, -0.19663400948047638, -0.08568805456161499, -0.18316398561000824, -0.045916154980659485, -0.13179638981819153, -0.18355695903301239, 0.022347493097186089, -0.044059887528419495, -0.004741310141980648, 
  0.14591647684574127, -0.020839044824242592, 0.078863285481929779, -0.008409528061747551, 0.0034661917015910149, 0.066420704126358032, -0.080116651952266693, 0.10734710842370987, -0.040462750941514969, 0.1838083416223526, 0.12897460162639618, 0.1010425016283989, -0.08601919561624527, 0.050168745219707489, 0.12441495060920715, 0.12297626584768295, 0.16021163761615753, 0.079308271408081055, -0.16585348546504974, -0.10738234966993332, 0.095560632646083832, -0.14897364377975464, -0.084836341440677643, -0.19893161952495575, 0.23462694883346558, -0.046656318008899689, -0.027112163603305817, 0.070716634392738342, 0.0079171070829033852, 0.22766995429992676, 0.068488433957099915, 0.16423769295215607, 0.070999480783939362, 
  0.0061547094956040382, -0.089790873229503632, -0.11347190290689468, 0.1745765209197998, -0.025154201313853264, -0.12172543257474899, 0.00093687517801299691, 0.13869403302669525, 0.083394549787044525, -0.041484780609607697, -0.14009259641170502, -0.093422353267669678, 0.18593208491802216, -0.12739776074886322, -0.11555837094783783, 0.12963582575321198, -0.09025052934885025, -0.085129700601100922, 0.10120829194784164, -0.15585455298423767, 0.024980351328849792, -0.13465619087219238, 0.047490537166595459, -0.04747936874628067, -0.12028571963310242, -0.044516231864690781, 0.17212602496147156, 0.12363278120756149, -0.18315422534942627, 0.023705260828137398, -0.0012569747632369399, 0.19665525853633881, -0.027733925729990005, 
  -0.14284056425094604, 0.0069002178497612476, 0.088532999157905579, 0.14230245351791382, 0.18223664164543152, 0.1501389741897583, -0.1803312748670578, 0.099293574690818787, 0.24565599858760834, 0.18409407138824463, -0.09275875985622406, 0.16762657463550568, 0.15558020770549774, -0.067228943109512329, -0.082834534347057343, -0.18700771033763885, -0.12637786567211151, -0.14059256017208099, 0.064538568258285522, 0.025131294503808022, -0.022231137380003929, 0.18925705552101135, -0.05558907613158226, 0.12358976155519485, 0.26190352439880371, -0.013649682514369488, -0.015328801237046719, 0.073646590113639832, -0.024474268779158592, 0.24535137414932251, -0.054059870541095734, -0.060708172619342804, 0.06370139867067337, 
  0.0038838633336126804, 0.17594236135482788, 0.043555449694395065, 0.14606298506259918, -0.0060144397430121899, 0.14641164243221283, -0.13701929152011871, 0.11313740164041519, -0.19150486588478088, 0.020818239077925682, 0.16143012046813965, 0.12204435467720032, 0.14524903893470764, -0.080544300377368927, 0.0085504679009318352, 0.11264204233884811, 0.12002163380384445, 0.2409510612487793, 0.096417650580406189, 0.12865142524242401, 0.19082863628864288, 0.077588386833667755, -0.21727956831455231, 0.246100053191185, 0.080757498741149902, -0.20935580134391785, 0.1135677844285965, 0.15716013312339783, 0.16187272965908051, 0.037034664303064346, -0.21767231822013855, 0.070951640605926514, 0.13707034289836884, 
  0.022943370044231415, -0.12143727391958237, -0.16672861576080322, -0.03131582960486412, 0.17644251883029938, 0.046844657510519028, -0.089547939598560333, -0.020274031907320023, 0.051868479698896408, -0.10105165094137192, -0.072572536766529083, -0.028043415397405624, 0.049346271902322769, 0.14525561034679413, 0.037814714014530182, 0.034977242350578308, 0.14550916850566864, -0.074123464524745941, -0.18836213648319244, 0.091611027717590332, -0.079619705677032471, -0.063013829290866852, 0.076811693608760834, 0.044438425451517105, 0.0074355858378112316, -0.17468419671058655, -0.041657757014036179, 0.14871972799301147, 0.2246708869934082, 0.22813151776790619, 0.033844422549009323, 0.23108798265457153, 0.20606851577758789, 
  -0.036869537085294724, -0.0053217061795294285, 0.11983853578567505, -0.087412245571613312, 0.11932134628295898, 0.068934760987758636, 0.086687453091144562, -0.10994972288608551, 0.1589771956205368, -0.011091677471995354, 0.0082312682643532753, 0.20978903770446777, 0.25008967518806458, 0.14666414260864258, 0.035013265907764435, 0.068633697926998138, 0.12574267387390137, -0.11430137604475021, -0.12949663400650024, 0.15339793264865875, -0.061877764761447906, -0.0085383551195263863, 0.18669167160987854, -0.17700798809528351, -0.072637371718883514, 0.053382668644189835, 0.20355825126171112, 0.043673336505889893, -0.038977440446615219, 0.15549172461032867, -0.12181311100721359, 0.16629296541213989, -0.12719833850860596, 
  0.27172428369522095, 0.20298704504966736, -0.10896562784910202, -0.027552574872970581, -0.061320003122091293, -0.0041181035339832306, 0.19191716611385345, 0.077259644865989685, 0.20267230272293091, -0.14337678253650665, 0.17115148901939392, 0.09664519876241684, 0.02077304944396019, 0.25779780745506287, 0.22528497874736786, 0.047776602208614349, -0.024520693346858025, 0.17414480447769165, 0.2063666433095932, 0.016215246170759201, -0.13725407421588898, -0.085226580500602722, 0.048516690731048584, 0.098737753927707672, -0.060916323214769363, -0.13287286460399628, 0.019903581589460373, 0.087727375328540802, -0.019227040931582451, -0.038484532386064529, -0.29762768745422363, 0.024331461638212204, -0.068097434937953949, 
  0.037649698555469513, -0.039308000355958939, 0.015590757131576538, 0.20308166742324829, 0.1366073340177536, 0.12756742537021637, -0.1442156583070755, 0.22299964725971222, 0.25982570648193359, 0.29460400342941284, 0.16227529942989349, -0.057280726730823517, -0.077696070075035095, -0.17626965045928955, 0.13224554061889648, -0.046662386506795883, 0.15533405542373657, 0.11461998522281647, 0.016724860295653343, -0.031141987070441246, 0.017497720196843147, 0.054918009787797928, -0.10168526321649551, 0.25507345795631409, 0.26144522428512573, 0.065606527030467987, -0.01707998663187027, 0.02745850570499897, -0.14735148847103119, 0.12298494577407837, 0.31777870655059814, 0.03675861656665802, -0.10036712884902954, 
  0.18701669573783875, -0.053763952106237411, -0.057025909423828125, 0.14738869667053223, -0.042908661067485809, 0.070368297398090363, 0.03417447954416275, -0.0054471208713948727, -0.056663118302822113, 0.21389041841030121, 0.022859672084450722, 0.033660255372524261, -0.011138484813272953, 0.13569743931293488, 0.18710409104824066, 0.10102327167987823, 0.1132383793592453, -0.1135609969496727, 0.24624477326869965, 0.21271051466464996, -0.1217905580997467, 0.13499000668525696, -0.083244293928146362, 0.1070244237780571, -0.018384469673037529, 0.13192665576934814, -0.044162929058074951, 0.013061030767858028, -0.11513303965330124, 0.12195757776498795, -0.14590448141098022, -0.0036168007645756006, 0.18086393177509308, 
  -0.12961860001087189, 0.19075314700603485, 0.11057472229003906, 0.015508907847106457, 0.17458054423332214, 0.23129908740520477, 0.05111607164144516, 0.10489670187234879, -0.076598778367042542, 0.25185135006904602, -0.015637602657079697, -0.02471366710960865, 0.19199554622173309, -0.060548581182956696, -0.1425090879201889, -0.040223497897386551, -0.042937684804201126, -0.17209464311599731, -0.12454153597354889, -0.081585630774497986, 0.19186580181121826, 0.12814629077911377, 0.24438691139221191, -0.070187702775001526, 0.16543194651603699, -0.014545361511409283, 0.2516624927520752, 0.14789777994155884, 0.1996152400970459, 0.045881204307079315, 0.15657423436641693, 0.062178205698728561, 0.13440656661987305, 
  0.16458486020565033, -0.14783270657062531, 0.15001675486564636, -0.036738507449626923, -0.06665513664484024, -0.05517161637544632, 0.17071709036827087, -0.024093626067042351, 0.068282313644886017, 0.089257538318634033, -0.15992572903633118, 0.075449027121067047, 0.20045562088489532, 0.17841812968254089, -0.016555124893784523, -0.12750017642974854, -0.11180499941110611, 0.037127230316400528, 0.036163799464702606, 0.1987033486366272, -0.073027230799198151, -0.082584463059902191, 0.19702577590942383, 0.16456927359104156, -0.12704126536846161, -0.085850074887275696, -0.057723134756088257, -0.0050449986010789871, 0.1767348051071167, 0.13080085813999176, 0.039323348551988602, 0.13810288906097412, -0.17004136741161346, 
  0.16139428317546844, -0.17164468765258789, 0.003339467104524374, -0.19137272238731384, 0.18724682927131653, 0.19931541383266449, 0.22417540848255157, -0.069805644452571869, 0.23545628786087036, 0.17611166834831238, -0.048516925424337387, -0.16590997576713562, 0.059860244393348694, 0.16444756090641022, 0.022351032122969627, 0.065204985439777374, -0.020787311717867851, 0.18594928085803986, 0.12277340143918991, 0.23920218646526337, 0.16627337038516998, 0.035195305943489075, 0.16643039882183075, 0.20173723995685577, 0.09242682158946991, -0.0457879938185215, -0.078340984880924225, -0.016305152326822281, 0.13718479871749878, 0.16723914444446564, -0.24970325827598572, 0.099159516394138336, 0.16011187434196472, 
  0.04866119846701622, -0.14390145242214203, 0.20160037279129028, 0.15882515907287598, -0.12585029006004333, -0.047057770192623138, 0.20764902234077454, 0.08153090626001358, 0.1458110511302948, -0.086360089480876923, 0.19908146560192108, -0.026180040091276169, -0.018610795959830284, -0.0050090504810214043, 0.043958842754364014, -0.012093056924641132, 0.13499358296394348, -0.039765994995832443, 0.10532409697771072, 0.030133564025163651, -0.10996532440185547, 0.033987157046794891, 0.046495944261550903, -0.067122243344783783, 0.25930491089820862, 0.1850290447473526, -0.0715632364153862, 0.065964609384536743, 0.12997555732727051, 0.086800500750541687, 0.15919986367225647, 0.025197884067893028, 0.20602086186408997, 
  -0.041342988610267639, -0.075871482491493225, -0.14267738163471222, 0.20416469871997833, -0.067521542310714722, -0.07636946439743042, -0.0019433782435953617, 0.15700918436050415, 0.015275414101779461, -0.039833944290876389, -0.097361177206039429, 0.033957656472921371, 0.2194412499666214, 0.19993980228900909, -0.035065837204456329, 0.18996107578277588, -0.062290888279676437, 0.004908733069896698, -0.077607966959476471, -0.12120305001735687, 0.21070170402526855, -0.0062984856776893139, -0.065283194184303284, -0.076328419148921967, -0.14655677974224091, 0.17636208236217499, 0.025809522718191147, -0.020875751972198486, 0.088632047176361084, 0.0081352405250072479, 0.14127276837825775, 0.026065763086080551, 0.061040658503770828, 
  0.12916578352451324, -0.10570693761110306, -0.0064292429015040398, 0.1998152881860733, 0.067701421678066254, -0.010643136687576771, 0.10944081842899323, -0.051889900118112564, 0.043694276362657547, 0.25577026605606079, -0.10134667903184891, 0.099848240613937378, 0.090708076953887939, 0.14413590729236603, 0.22398486733436584, -0.1325177401304245, 0.10082148760557175, -0.12195812910795212, -0.028530405834317207, 0.15442512929439545, -0.01338884886354208, 0.00055920018348842859, -0.082854971289634705, -0.12607826292514801, 0.1841590404510498, -0.1338866800069809, 0.088332399725914001, 0.040951427072286606, -0.042630929499864578, -0.14124712347984314, -0.10604897886514664, -0.22930698096752167, -0.15334340929985046, 
  0.12061219662427902, 0.030869605019688606, 0.12499020248651505, 0.21350677311420441, -0.010583942756056786, 0.14343108236789703, -0.18974150717258453, -0.12152568995952606, 0.1529112309217453, 0.15843594074249268, 0.21219776570796967, 0.14558388292789459, 0.12650924921035767, -0.1936381608247757, -0.11473564803600311, -0.098320424556732178, 0.027208276093006134, 0.17810370028018951, 0.14587077498435974, 0.14445829391479492, 0.091467320919036865, 0.083928510546684265, -0.00365464948117733, 0.03111523762345314, -0.094518251717090607, -0.15929292142391205, 0.11508546769618988, -0.16547907888889313, -0.066195219755172729, 0.19789941608905792, -0.088836856186389923, -0.084343418478965759, 0.12890820205211639, 
  0.17670272290706635, 0.067855924367904663, -0.0010767132043838501, 0.076848253607749939, 0.081954739987850189, 0.21743404865264893, 0.13326936960220337, -0.10671048611402512, -0.00059789372608065605, 0.15544417500495911, -0.064559124410152435, 0.11954294145107269, -0.091429583728313446, -0.015445029363036156, 0.07667253166437149, 0.0021004034206271172, -0.095022857189178467, -0.13616728782653809, -0.047505799680948257, 0.25954607129096985, 0.22313010692596436, -0.033476263284683228, 0.2464187890291214, -0.15957018733024597, 0.022306080907583237, 0.022692980244755745, 0.10445292294025421, 0.2189737856388092, 0.20132057368755341, 0.20209622383117676, -0.025689264759421349, -0.015162399038672447, -0.16373564302921295, 
  -0.039089612662792206, 0.026554625481367111, -0.10300964862108231, 0.16424043476581573, -0.060558885335922241, 0.1166042760014534, 0.19023653864860535, 0.18547222018241882, 0.087414316833019257, -0.051848556846380234, -0.10608088225126266, 0.14377734065055847, 0.042264964431524277, 0.049366030842065811, -0.17795683443546295, 0.099662177264690399, 0.044989123940467834, -0.1175961047410965, 0.044042959809303284, -0.16154801845550537, 0.13483208417892456, -0.057509768754243851, -0.024032348766922951, 0.1485452800989151, 0.15084896981716156, -0.068359769880771637, -0.094809658825397491, -0.032901603728532791, -0.12129506468772888, -0.033278610557317734, 0.17474283277988434, -0.060874711722135544, -0.17443038523197174, 
  -0.039844945073127747, -0.06706690788269043, -0.11677799373865128, 0.082065984606742859, -0.11404847353696823, 0.077860988676548004, -0.0020764984656125307, 0.029104508459568024, -0.11117923259735107, 0.10952983051538467, -0.028113551437854767, -0.011952649801969528, -0.021268619224429131, -0.13020327687263489, 0.12274374812841415, 0.17582127451896667, 0.0025100861676037312, 0.17956168949604034, 0.12223024666309357, 0.16722998023033142, 0.0068879090249538422, -0.16654196381568909, 0.17305810749530792, 0.057695109397172928, 0.049597412347793579, 0.0044997897930443287, 0.0045338417403399944, 0.081027217209339142, -0.1518830806016922, 0.2528725266456604, 0.019205968827009201, -0.12792029976844788, 0.051306020468473434, 
  -0.0032792133279144764, 0.22525230050086975, -0.045097623020410538, 0.066877298057079315, 0.00031338978442363441, 0.099930413067340851, -0.0721539705991745, 0.13199174404144287, -0.096171706914901733, 0.08990197628736496, 0.22193880379199982, -0.0074825030751526356, 0.20719194412231445, 0.19399881362915039, 0.24290665984153748, 0.22796446084976196, 0.041005056351423264, -0.10261557996273041, -0.13297314941883087, -0.085596449673175812, 0.12283235043287277, 0.1769603043794632, -0.13203112781047821, -0.049650564789772034, -0.15366700291633606, -0.041697017848491669, 0.028356030583381653, 0.18767920136451721, -0.056008875370025635, 0.018890369683504105, 0.0026775449514389038, -0.20663045346736908, -0.13524991273880005, 
  -0.16254960000514984, 0.12039001286029816, -0.043345991522073746, 0.18252034485340118, -0.086341224610805511, 0.15538994967937469, 0.09408317506313324, -0.13535515964031219, 0.1962837427854538, -0.10238518565893173, -0.10968863964080811, 0.1633155345916748, 0.23368285596370697, 0.047732383012771606, 0.22747012972831726, 0.20623154938220978, -0.035297933965921402, 0.11418865621089935, -0.01483907550573349, 0.2404380589723587, -0.16095930337905884, 0.035271015018224716, -0.085639975965023041, 0.15487529337406158, -0.17032730579376221, 0.14955295622348785, 0.092766344547271729, 0.089353829622268677, -0.11378398537635803, -0.11490365117788315, -0.062734097242355347, -0.041519913822412491, -0.080238997936248779, 
  0.095123797655105591, 0.1171300932765007, -0.016268640756607056, 0.17789824306964874, 0.17248483002185822, 0.177541583776474, -0.15360648930072784, -0.028420208021998405, 0.095543429255485535, -0.08182990550994873, 0.18703316152095795, 0.12271182239055634, -0.12924937903881073, 0.16211046278476715, 0.043622966855764389, 0.098307043313980103, 0.071972876787185669, 0.073272384703159332, -0.14535523951053619, -0.10750821232795715, -0.10630053281784058, -0.15373234450817108, -0.20855076611042023, -0.12195441871881485, -0.21239028871059418, 0.0056487969122827053, -0.21022054553031921, 0.14580552279949188, 0.099251091480255127, -0.032195255160331726, 0.021444156765937805, -0.0061390046030282974, 0.046527836471796036, 
  -0.15763618052005768, 0.029086902737617493, 0.17670527100563049, -0.065179288387298584, -0.18922938406467438, 0.073096364736557007, -0.0041970014572143555, -0.13506385684013367, 0.18176379799842834, -0.086156010627746582, 0.0036305487155914307, -0.20220395922660828, -0.18408718705177307, -0.20533353090286255, -0.1074424535036087, 0.10924476385116577, -0.17232692241668701, 0.092049598693847656, -0.01265619695186615, 0.16909068822860718, 0.12363889813423157, 0.19026663899421692, 0.070837080478668213, 0.14086300134658813, 0.063787758350372314, -0.07840244472026825, -0.15679165720939636, 0.077693432569503784, -0.16882281005382538, -0.16276596486568451, -0.094743013381958008, -0.17170111835002899, 0.099345892667770386, 
  -0.048039950430393219, 0.1772444099187851, -0.15770153701305389, 0.17105394601821899, 0.062725655734539032, -0.11175868660211563, -0.06774621456861496, 0.1475655734539032, -0.21360616385936737, -0.041777081787586212, 0.20004528760910034, -0.22485615313053131, 0.058643519878387451, 0.044188354164361954, 0.21035866439342499, -0.12670086324214935, 0.15760831534862518, -0.10883344709873199, -0.16982243955135345, -0.073840588331222534, -0.19649809598922729, 0.11182411015033722, -0.078878842294216156, -0.14556007087230682, 0.19706237316131592, -0.10197754204273224, 0.08919457346200943, 0.12010753154754639, 0.038393210619688034, 0.092120669782161713, 0.20223817229270935, 0.087053872644901276, 0.24231243133544922, 
  -0.10109895467758179, 0.011918296106159687, 0.19287765026092529, -0.14713922142982483, -0.0046371202915906906, 0.14110840857028961, 0.18267951905727386, -0.17886584997177124, 0.10925775021314621, -0.032016891986131668, -0.16924454271793365, 0.16469904780387878, 0.013483245857059956, 0.22247526049613953, 0.012854837812483311, -0.068544469773769379, 0.015143821015954018, 0.0082421638071537018, 0.082414939999580383, -0.15312249958515167, -0.083507634699344635, 0.13484600186347961, -0.17004184424877167, 0.19364657998085022, -0.20804595947265625, -0.091545358300209045, 0.080908641219139099, 0.09458797425031662, 0.14022494852542877, 0.082954801619052887, -0.029139453545212746, -0.15756475925445557, 0.04909631609916687, 
  0.21906645596027374, 0.11747465282678604, -0.011032834649085999, 0.10611686110496521, -0.014811959117650986, 0.21967008709907532, 0.12919594347476959, 0.16471444070339203, -0.020574077963829041, 0.067144207656383514, 0.046712998300790787, -0.10839983820915222, 0.040650688111782074, -0.13360954821109772, 0.1501278430223465, -0.028438713401556015, 0.031243612989783287, -0.11618299782276154, 0.047582492232322693, 0.26744601130485535, -0.11342735588550568, -0.12997269630432129, 0.091494403779506683, -0.10132011026144028, 0.078557617962360382, 0.1845722496509552, 0.14714343845844269, 0.015676181763410568, -0.13698995113372803, 0.23700286448001862, -0.097831375896930695, 0.13386557996273041, 0.14143000543117523, 
  -0.038533322513103485, 0.053895201534032822, 0.0037458438891917467, -0.047431167215108871, 0.13230244815349579, -0.043516397476196289, 0.16126422584056854, -0.11148180067539215, -0.15890517830848694, 0.19062688946723938, 0.17175377905368805, 0.16563698649406433, -0.008521432988345623, -0.15035487711429596, 0.067506633698940277, -0.035171587020158768, 0.089476153254508972, -0.17806035280227661, -0.16074749827384949, 0.038232192397117615, -0.098965786397457123, 0.17269554734230042, 0.11723469197750092, -0.058495379984378815, 0.14189891517162323, -0.057518996298313141, 0.070035822689533234, 0.16424418985843658, 0.10181704163551331, 0.20443864166736603, 0.13808891177177429, -0.11552850157022476, 0.26141789555549622, 
  0.14040981233119965, 0.032820571213960648, 0.0093285767361521721, 0.18159483373165131, -0.1112135648727417, 0.055975906550884247, 0.16238516569137573, 0.048288542777299881, 0.034614905714988708, -0.0036857426166534424, 0.14147482812404633, 0.046275660395622253, -0.018498200923204422, -0.11845771968364716, -0.044547244906425476, -0.088733471930027008, -0.056332685053348541, 0.15506517887115479, -0.0052756192162632942, 0.079260252416133881, -0.015308993868529797, 0.13353246450424194, 0.20619271695613861, 0.2201276421546936, 0.24312508106231689, -0.088359035551548004, 0.030503306537866592, 0.17251767218112946, 0.072675511240959167, 0.24162767827510834, -0.070647194981575012, 0.14798660576343536, 0.15486420691013336, 
  0.03773050382733345, -0.022924775257706642, -0.18775646388530731, -0.16246506571769714, 0.16242457926273346, 0.20512409508228302, 0.12691126763820648, -0.16575832664966583, -0.15784536302089691, 0.19712018966674805, 0.068825080990791321, 0.0070583433844149113, 0.20091396570205688, 0.0040181940421462059, -0.018597004935145378, 0.11221104860305786, -0.20740562677383423, 0.078502967953681946, 0.11193791776895523, 0.21196971833705902, -0.028098247945308685, 0.076584294438362122, -0.099259413778781891, 0.037646502256393433, 0.26938939094543457, -0.10082064568996429, 0.17394556105136871, -0.066151149570941925, -0.11715045571327209, 0.090915180742740631, -0.019951861351728439, 0.067647397518157959, -0.10486944019794464, 
  -0.21223491430282593, -0.15349908173084259, -0.093374766409397125, -0.14382550120353699, -0.20594231784343719, 0.10148147493600845, 0.034668724983930588, -0.19373601675033569, 0.13611128926277161, 0.010071646422147751, 0.16002734005451202, 0.077872477471828461, 0.12412627786397934, -0.022926844656467438, -0.2216172069311142, 0.10757026076316833, -0.22701135277748108, -0.11083546280860901, 0.17036931216716766, 0.11007183790206909, -0.10104979574680328, -0.06047067791223526, 0.0025515202432870865, 0.18557463586330414, 0.17593084275722504, -0.044473361223936081, 0.16498373448848724, 0.16703099012374878, -0.0047924835234880447, -0.064008228480815887, -0.12335527688264847, -0.11718129366636276, -0.22269299626350403, 
  0.18253692984580994, -0.056920170783996582, -0.021103173494338989, -0.17467765510082245, 0.20614644885063171, 0.040579438209533691, 0.020635008811950684, 0.047162186354398727, -0.083535581827163696, 0.11031004041433334, -0.093672305345535278, -0.20007041096687317, -0.16933715343475342, -0.15111623704433441, -0.17246773838996887, 0.11523622274398804, -0.190206378698349, -0.10123070329427719, -0.10396620631217957, -0.038010004907846451, 0.18839825689792633, 0.071321651339530945, 0.18751759827136993, 0.095435112714767456, -0.12309291213750839, -0.16134567558765411, -0.058052778244018555, -0.13747566938400269, 0.16963404417037964, -0.19465245306491852, -0.014747297391295433, -0.152508944272995, 0.08445991575717926, 
  0.15821206569671631, 0.17784877121448517, -0.014179476536810398, 0.066217854619026184, -0.14283448457717896, -0.15928696095943451, 0.10795122385025024, 0.18388524651527405, 0.15670885145664215, -0.033430818468332291, 0.013043445535004139, 0.010682969354093075, -0.13823030889034271, 0.00015155661094468087, -0.05954786017537117, -0.084465138614177704, 0.012988950125873089, -0.22085015475749969, -0.19821229577064514, 0.25759187340736389, 0.072453774511814117, -0.013347132131457329, 0.27343049645423889, 0.11238353699445724, 0.20040304958820343, 0.25657987594604492, 0.17041619122028351, -0.069251105189323425, -0.13486827909946442, -0.13095963001251221, -0.046284422278404236, 0.25398045778274536, 0.081166528165340424, 
  0.046290628612041473, 0.09437725692987442, 0.16643683612346649, -0.07313903421163559, -0.051218513399362564, -0.027872869744896889, 0.10392211377620697, 0.051170472055673599, -0.10004566609859467, 0.10988222062587738, 0.11349453032016754, 0.076869696378707886, -0.031887028366327286, -0.089040458202362061, 0.037499979138374329, 0.18104049563407898, 0.032424002885818481, 0.17886228859424591, 0.072464093565940857, 0.28699404001235962, 0.02649962529540062, 0.12301941961050034, 0.016449237242341042, 0.016296220943331718, 0.25968208909034729, -0.075754158198833466, 0.19715267419815063, 0.15790359675884247, 0.10060293972492218, 0.16855807602405548, 0.25445058941841125, 0.24145613610744476, -0.073467105627059937, 
  0.044595461338758469, 0.13667745888233185, -0.11813949793577194, 0.095188088715076447, 0.069373577833175659, 0.033383049070835114, -0.18559202551841736, -0.10419062525033951, -0.16545887291431427, -0.11207521706819534, 0.19829252362251282, -0.1462550163269043, -0.078646808862686157, -0.041036330163478851, 0.12176623195409775, -0.1931377500295639, -0.083594270050525665, -0.19680377840995789, -0.19769889116287231, -0.17051412165164948, -0.10855092108249664, -0.10715854167938232, 0.14874979853630066, 0.014770760200917721, 0.070714443922042847, -0.10150627046823502, -0.061342988163232803, 0.071122318506240845, -0.14976808428764343, 0.07595844566822052, -0.06284775584936142, -0.13320982456207275, -0.1068737804889679, 
  0.054360996931791306, 0.052321210503578186, 0.16180567443370819, -0.16718347370624542, -0.051262620836496353, -0.089898683130741119, -0.11481298506259918, -0.068438224494457245, 0.015969177708029747, -0.10678344964981079, 0.18534901738166809, 0.18709619343280792, 0.12722142040729523, 0.21631993353366852, -0.032470155507326126, -0.030489519238471985, 0.17871594429016113, 0.095094941556453705, 0.24021780490875244, 0.024504907429218292, 0.13513939082622528, -0.12527813017368317, 0.23358903825283051, -0.14878165721893311, -0.12706330418586731, 0.021261159330606461, 0.16115127503871918, 0.17727318406105042, 0.22386834025382996, 0.074498988687992096, -0.13228414952754974, 0.094082534313201904, 0.13118533790111542, 
  0.029919927939772606, 0.15039551258087158, -0.0086220549419522285, 0.10073284804821014, -0.04882001131772995, 0.014484360814094543, -0.073757566511631012, -0.026422128081321716, -0.19967250525951385, 0.09901147335767746, -0.21889606118202209, -0.17714111506938934, -0.13791945576667786, 0.043525349348783493, -0.0016461889026686549, 0.091717146337032318, 0.070382043719291687, -0.096256248652935028, 0.09172666072845459, -0.058583982288837433, 0.0053661628626286983, -0.19982454180717468, 0.083365544676780701, -0.019614260643720627, -0.011771418154239655, -0.11924029886722565, -0.13213369250297546, 0.13112674653530121, -0.092528842389583588, 0.072661750018596649, 0.2392486035823822, -0.15613144636154175, 0.22072400152683258, 
  0.11181548982858658, 0.1072767972946167, -0.13547652959823608, 0.077982015907764435, 0.017184838652610779, 0.039658363908529282, -0.068813696503639221, -0.064476922154426575, -0.14959099888801575, 0.10834237188100815, 0.18192851543426514, 0.10099028050899506, 0.24566680192947388, -0.16179591417312622, 0.088876970112323761, 0.23206107318401337, 0.16935843229293823, 0.20974725484848022, 0.23389981687068939, 0.073586046695709229, -0.035560619086027145, 0.15632231533527374, -0.069924242794513702, 0.20395149290561676, 0.20218026638031006, 0.11414653807878494, 0.12277813255786896, 0.057003363966941833, -0.065001420676708221, -0.13201031088829041, 0.12568055093288422, -0.02525235153734684, -0.086273632943630219, 
  0.061430048197507858, -0.12885457277297974, 0.21922621130943298, 0.22178664803504944, -0.084166742861270905, 0.11445839703083038, -0.02638588473200798, -0.054714448750019073, -0.00059137202333658934, 0.044775772839784622, 0.031120741739869118, 0.068688899278640747, 0.094837687909603119, -0.11256635934114456, -0.048274457454681396, 0.1194438561797142, 0.2075742781162262, -0.062178030610084534, -0.10387212783098221, 0.14823225140571594, 0.16815948486328125, 0.040885645896196365, 0.14319264888763428, -0.14984138309955597, 0.096428222954273224, 0.24531123042106628, 0.2134365439414978, 0.084217675030231476, 0.1766926646232605, -0.049350488930940628, -0.11068067699670792, -0.11993435025215149, 0.027727117761969566, 
  -0.090139679610729218, 0.10355733335018158, 0.17316968739032745, -0.080391265451908112, 0.046638656407594681, -0.061592560261487961, -0.079289957880973816, -0.088904306292533875, -0.039368957281112671, 0.084886938333511353, -0.2061183899641037, 0.022568514570593834, -0.096440032124519348, -0.037169184535741806, -0.089978314936161041, 0.035256907343864441, 0.094326429069042206, 0.0066826152615249157, -0.19659994542598724, 0.16807335615158081, -0.032373026013374329, -0.045423712581396103, -0.13345682621002197, -0.060909371823072433, -0.15186719596385956, -0.089973703026771545, 0.12071674317121506, 0.016552802175283432, 0.17008723318576813, 0.042300328612327576, 0.049984626471996307, 0.19361940026283264, 0.19652357697486877, 
  -0.17274868488311768, -0.16363433003425598, -0.11636868864297867, -0.059240236878395081, -0.033357992768287659, 0.14614874124526978, 0.021879687905311584, 0.071866393089294434, -0.13854937255382538, 0.005372956395149231, 0.083182245492935181, -0.1212608739733696, -0.18729673326015472, -0.1237463653087616, 0.073940634727478027, 0.16254124045372009, -0.12269767373800278, 0.19116616249084473, -0.15270565450191498, 0.11600363254547119, -0.010230198502540588, -0.037450388073921204, -0.023464351892471313, 0.059365361928939819, -0.16112469136714935, 0.14654064178466797, 0.20221108198165894, 0.078799903392791748, 0.058506399393081665, 0.13823848962783813, -0.081112265586853027, 0.052090495824813843, -0.18077430129051208, 
  0.1550411731004715, -0.17207588255405426, -0.18699714541435242, 0.0028927489183843136, -0.075145915150642395, -0.0045658862218260765, 0.14667586982250214, 0.075127683579921722, -0.041923731565475464, 0.2059352695941925, -0.040742576122283936, 0.081806451082229614, 0.15521240234375, -0.19200499355792999, -0.12229853123426437, -0.025638990104198456, 0.099806740880012512, -0.049192879348993301, 0.038515832275152206, -0.12283176183700562, -0.11665431410074234, 0.08905058354139328, 0.16719096899032593, 0.089317724108695984, 0.12915238738059998, 0.19696992635726929, 0.062932908535003662, -0.10761723667383194, 0.089919939637184143, -0.12570387125015259, -0.12248837947845459, -0.14645844697952271, -0.019110368564724922, 
  -0.17013528943061829, 0.021358223631978035, 0.033641479909420013, -0.10670173168182373, 0.18491522967815399, 0.10083255916833878, -0.025011429563164711, 0.10654381662607193, 0.0082567902281880379, 0.14269378781318665, 0.12071040272712708, 0.11640841513872147, 0.24175429344177246, 0.14775724709033966, 0.11520516872406006, -0.073830440640449524, -0.1342165619134903, 0.078276865184307098, -0.068928904831409454, -0.13852763175964355, 0.030903931707143784, 0.25737044215202332, -0.2062290757894516, 0.26956069469451904, -0.00011264542990829796, -0.13926170766353607, -0.12723845243453979, 0.069422163069248199, -0.051761306822299957, -0.11950632184743881, -0.25330564379692078, 0.1327013224363327, -0.20045030117034912, 
  0.2138633131980896, 0.12724985182285309, -0.046579066663980484, -0.043355152010917664, -0.11129119247198105, -0.17399224638938904, 0.18360677361488342, -0.048802431672811508, 0.037086859345436096, -0.21879564225673676, 0.10847284644842148, 0.18897517025470734, -0.16914401948451996, -0.12134310603141785, 0.048140596598386765, 0.11805292218923569, -0.14825093746185303, 0.1384924054145813, 0.016107430681586266, 0.14232881367206573, -0.21341527998447418, 0.097438924014568329, -0.17704093456268311, -0.21780325472354889, 0.060026831924915314, -0.2027660459280014, 0.099291980266571045, -0.084755927324295044, -0.041504636406898499, 0.09368288516998291, -0.10593342036008835, 0.10331404954195023, 0.12280773371458054, 
  0.088014028966426849, 0.24164704978466034, -0.061599083244800568, 0.20036625862121582, 0.19731567800045013, 0.15212550759315491, 0.18407562375068665, -0.02498181164264679, -0.11182203888893127, 0.10125678777694702, 0.26548668742179871, 0.14889700710773468, 0.057141758501529694, 0.1543591320514679, -0.019916368648409843, -0.002247791038826108, 0.076718792319297791, -0.14175166189670563, -0.1226850152015686, -0.084491424262523651, 0.13438361883163452, 0.0041888682171702385, 0.12449929118156433, -0.089215293526649475, 0.22415509819984436, 0.19920560717582703, 0.10570842772722244, -0.046195242553949356, -0.028514625504612923, -0.15163818001747131, 0.012364658527076244, 0.16953964531421661, 0.20415277779102325, 
  0.166976198554039, 0.18182753026485443, 0.18430669605731964, -0.049010802060365677, -0.17618253827095032, -0.086125798523426056, -0.17854742705821991, 0.19919197261333466, -0.010352644138038158, 0.09639972448348999, 0.17203329503536224, 0.091893024742603302, -0.064435757696628571, -0.16822732985019684, -0.18166345357894897, 0.075119301676750183, -0.13008977472782135, -0.065602168440818787, 0.02784389816224575, -0.15892748534679413, -0.057045366615056992, -0.021584978327155113, -0.034467674791812897, -0.21656088531017303, -0.071333810687065125, -0.029530955478549004, 0.17102721333503723, -0.052805524319410324, 0.084164001047611237, 0.16760045289993286, 0.084730140864849091, 0.13575351238250732, -0.14040125906467438, 
  -0.0047698724083602428, 0.11959486454725266, -0.023002080619335175, 0.13311401009559631, -0.24026116728782654, -0.11338981986045837, 0.12330479919910431, -0.219435915350914, -0.14529867470264435, 0.16839665174484253, 0.10604722052812576, -0.1282263845205307, -0.037275291979312897, 0.14409159123897552, 0.15637648105621338, 0.17504452168941498, 0.087090641260147095, 0.16828577220439911, 0.062865994870662689, 0.10206096619367599, -0.036233015358448029, 0.16470062732696533, 0.041309189051389694, -0.16233652830123901, -0.20069542527198792, -0.12074614316225052, -0.089447662234306335, -0.14410516619682312, 0.044722557067871094, -0.068075984716415405, -0.10738306492567062, -0.055757138878107071, -0.21115782856941223, 
  0.1302206814289093, -0.073148854076862335, 0.028804181143641472, -0.1026214137673378, 0.12658227980136871, 0.014920754358172417, 0.17510704696178436, -0.063765980303287506, -0.047259323298931122, 0.029502125456929207, -0.024024127051234245, 0.19768320024013519, -0.19450604915618896, -0.17760258913040161, -0.070224374532699585, -0.01824970543384552, -0.075932160019874573, -0.13203312456607819, 0.1324298083782196, -0.093998350203037262, -0.12472884356975555, 0.18156823515892029, -0.060682486742734909, -0.17482264339923859, -0.0059102233499288559, 0.15021100640296936, 0.094950377941131592, -0.073116041719913483, 0.05431341752409935, 0.034800741821527481, -5.2627168770413846e-05, 0.10426269471645355, 0.19592639803886414, 
  -0.018569698557257652, 0.21984086930751801, 0.23055501282215118, 0.18739411234855652, -0.042495749890804291, 0.057106383144855499, 0.15584057569503784, 0.15395632386207581, -0.090567685663700104, 0.12422118335962296, 0.082140706479549408, -0.16470964252948761, 0.042034361511468887, -0.066309168934822083, -0.019875863566994667, 0.24320787191390991, -0.024618800729513168, 0.20472660660743713, 0.082822993397712708, 0.013182410970330238, -0.0031306229066103697, -0.0078159943222999573, 0.25345975160598755, -0.093683131039142609, 0.069514356553554535, -0.054414913058280945, 0.021365473046898842, -0.06521943211555481, -0.039302468299865723, -0.12578238546848297, -0.064423106610774994, -0.03936072438955307, 0.081269308924674988, 
  -0.047444246709346771, 0.029389945790171623, -0.17483587563037872, -0.059769827872514725, 0.099390603601932526, 0.17608794569969177, 0.021801671013236046, 0.043918441981077194, 0.04835878312587738, 0.012958087027072906, -0.088591009378433228, -0.13327458500862122, -0.07607848197221756, 0.16308879852294922, 0.01834910549223423, 0.16630764305591583, 0.038735169917345047, -0.092779040336608887, -0.15960009396076202, 0.098924390971660614, 0.033602342009544373, -0.044603604823350906, 0.065685324370861053, 0.14048866927623749, 0.089472532272338867, -0.1708483099937439, 0.19335004687309265, 0.17081363499164581, 0.18502159416675568, 0.051587831228971481, -0.17076238989830017, 0.027591362595558167, -0.014352353289723396, 
  0.17747767269611359, 0.048683684319257736, -0.034529559314250946, 0.18695233762264252, 0.17712655663490295, 0.093093439936637878, -0.17999210953712463, 0.001550576533190906, 0.15984882414340973, -0.16578565537929535, 0.16713427007198334, -0.13509570062160492, 0.19925679266452789, 0.082779437303543091, 0.10338061302900314, -0.16134500503540039, 0.18320006132125854, -0.11397154629230499, 0.23258771002292633, 0.11038702726364136, 0.061136215925216675, -0.056733518838882446, 0.047016676515340805, 0.11878667771816254, -0.14340434968471527, -0.12724399566650391, 0.15481945872306824, -0.064453586935997009, 0.057117816060781479, 0.038225851953029633, -0.17461153864860535, -0.08372141420841217, 0.086546525359153748, 
  0.11054085940122604, -0.075898893177509308, -0.11039376258850098, -0.052589111030101776, -0.14164362847805023, -0.011961364187300205, 0.073382802307605743, 0.1096983402967453, 0.1818903386592865, -0.006736446637660265, 0.075716428458690643, 0.031352519989013672, 0.14890412986278534, 0.084840252995491028, 0.17515102028846741, -0.14071670174598694, -0.22070063650608063, 0.014783157035708427, 0.010517504066228867, 0.021095680072903633, -0.15542751550674438, 0.071103207767009735, 0.10502313822507858, 0.13703538477420807, 0.26004216074943542, -0.13128374516963959, -0.12440240383148193, 0.20368053019046783, 0.21777808666229248, 0.075533591210842133, -0.089851334691047668, 0.13252095878124237, -0.043796829879283905, 
  0.088820099830627441, 0.23330509662628174, 0.21466848254203796, -0.0019704061560332775, 0.17793719470500946, -0.17764714360237122, 0.091913104057312012, 0.0078886551782488823, -0.03964623436331749, -0.16938194632530212, -0.020224746316671371, -0.037187453359365463, -0.071819886565208435, -0.089072056114673615, -0.13818837702274323, 0.19627061486244202, -0.11882299929857254, 0.14071820676326752, 0.15863299369812012, 0.25739747285842896, 0.17240899801254272, 0.15902861952781677, 0.069692566990852356, 0.13387641310691833, 0.13009773194789886, 0.21845978498458862, 0.12163896858692169, -0.00821696687489748, 0.082709811627864838, 0.13798195123672485, -0.18843664228916168, 0.20401068031787872, -0.18631681799888611, 
};
const TfArray<2, int> tensor_dimension4 = { 2, { 100,33 } };
const ALIGN(8) float tensor_data5[10*100] = { 
  -0.16017128527164459, 0.23971845209598541, 0.22976334393024445, 0.23897917568683624, 0.38891977071762085, -0.18477062880992889, 0.094994299113750458, 0.019896680489182472, -0.13496853411197662, -0.22311566770076752, -0.082406036555767059, -0.10287036746740341, 0.24121060967445374, 0.20012398064136505, -0.062839746475219727, 0.024688692763447762, -0.26385796070098877, 0.20014998316764832, -0.1227894127368927, 0.042452014982700348, 0.21851114928722382, -0.17230463027954102, -0.28850829601287842, 0.17764309048652649, -0.12491769343614578, -0.21570220589637756, 0.32710036635398865, -0.13284865021705627, 0.044204246252775192, -0.1044892817735672, -0.09998098760843277, -0.10060366988182068, 0.091483592987060547, -0.1048111692070961, 0.40918409824371338, 0.29739281535148621, 0.41849672794342041, 0.0077016730792820454, 0.38006705045700073, 0.032928898930549622, 0.12262781709432602, 0.40122374892234802, -0.20842723548412323, 0.39508408308029175, -0.11599662154912949, 0.089342288672924042, 0.31436291337013245, 0.052941553294658661, -0.16954156756401062, -0.16814950108528137, -0.2165215015411377, 0.026205724105238914, 0.21925656497478485, -0.088040791451931, 0.029921915382146835, -0.23201337456703186, 0.078152887523174286, -0.083419919013977051, 0.16699011623859406, -0.12690319120883942, 0.099859073758125305, -0.1130315437912941, -0.21069104969501495, -0.0083521166816353798, -0.20010362565517426, -0.24925518035888672, -0.28663322329521179, 0.2567756175994873, -0.10216481238603592, 0.19994905591011047, 0.08441847562789917, -0.11111864447593689, 0.20396804809570312, -0.32163438200950623, 0.16913251578807831, 0.064896076917648315, 0.11727643013000488, 0.014635825529694557, -0.081385895609855652, -0.016325229778885841, -0.27351000905036926, -0.19506376981735229, 0.063598215579986572, 0.30505946278572083, -0.26068288087844849, 0.27019467949867249, 0.0042434693314135075, -0.064479321241378784, 0.31877988576889038, 0.19223596155643463, 0.28004738688468933, 0.14688220620155334, 0.36434024572372437, -0.05139496922492981, 0.16031335294246674, -0.16435515880584717, -0.0085847955197095871, -0.22505472600460052, -0.094177097082138062, -0.24933813512325287, 
  -0.11330956965684891, 0.055156279355287552, -0.052933502942323685, 0.1572687178850174, 0.030837425962090492, -0.11400336772203445, 0.20999185740947723, -0.1043064221739769, -0.11917789280414581, -0.17263163626194, 0.053450409322977066, -0.14029113948345184, -0.07735859602689743, -0.092204399406909943, -0.17288735508918762, -0.22164936363697052, -0.013540707528591156, 0.22389061748981476, 0.16855254769325256, -0.22640456259250641, 0.11706163734197617, 0.13075047731399536, 0.082644984126091003, 0.021228073164820671, -0.031608063727617264, 0.29372373223304749, -0.0055377003736793995, 0.18031264841556549, 0.10049019753932953, 0.097037047147750854, -0.18656823039054871, -0.0020144125446677208, 0.13516104221343994, 0.18951767683029175, -0.034009754657745361, 0.13179396092891693, -0.13912464678287506, -0.066662877798080444, -0.15942218899726868, 0.065507747232913971, -0.30961355566978455, 0.12815520167350769, 0.10609675198793411, 0.096594363451004028, 0.2159087061882019, 0.2002691924571991, 0.13109089434146881, 0.18320804834365845, 0.040157049894332886, 0.044623780995607376, 0.21029995381832123, -0.11212097108364105, 0.023085528984665871, 0.18445660173892975, 0.053877163678407669, 0.35204994678497314, -0.034905523061752319, 0.12601366639137268, 0.074407562613487244, -0.049347471445798874, 0.28502053022384644, 0.0069559975527226925, -0.11891236156225204, -0.080716900527477264, -0.038334578275680542, 0.11136450618505478, 0.35207477211952209, -0.18811282515525818, -0.089100949466228485, 0.030168792232871056, -0.14998471736907959, 0.26058658957481384, -0.19958434998989105, 0.18306171894073486, 0.3271191418170929, 0.23371230065822601, 0.15004144608974457, -0.20475029945373535, 0.074861280620098114, 0.23711276054382324, 0.21656742691993713, -0.031272843480110168, 0.18971112370491028, 0.052405841648578644, -0.024727107957005501, 0.21797919273376465, 0.078433804214000702, -0.16980352997779846, -0.077963456511497498, -0.26259195804595947, -0.084466047585010529, 0.22327260673046112, -0.098615162074565887, 0.13986293971538544, -0.1435675173997879, 0.28381532430648804, 0.029737301170825958, -0.11882922053337097, 0.21286012232303619, 0.066524729132652283, 
  -0.15403161942958832, 0.37222602963447571, 0.1557859480381012, 0.035397980362176895, 0.3549639880657196, -0.082922913134098053, 0.16902415454387665, -0.095788873732089996, 0.1741936206817627, 0.13811123371124268, -0.11325934529304504, -0.085668645799160004, 0.093176186084747314, -0.21673360466957092, 0.070370703935623169, -0.078790560364723206, 0.022927165031433105, 0.32911583781242371, -0.16015622019767761, -0.073895394802093506, 0.32985839247703552, -0.27695325016975403, -0.090010464191436768, 0.35031652450561523, 0.13307285308837891, 0.099980942904949188, 0.051276080310344696, -0.16269770264625549, 0.18656633794307709, 0.17868851125240326, 0.11447548866271973, -0.2429557740688324, 0.03344247117638588, -0.044240478426218033, 0.02863982692360878, 0.25935903191566467, 0.41898941993713379, 0.22994373738765717, 0.20021983981132507, -0.10629564523696899, 0.19301818311214447, 0.276389479637146, -0.0096691399812698364, 0.32202601432800293, 0.14500480890274048, -0.1690167635679245, 0.24600118398666382, -0.19799481332302094, -0.031807266175746918, -0.026646463200449944, -0.14314396679401398, -0.0082857878878712654, 0.077374406158924103, -0.13242761790752411, 0.19037850201129913, 0.0927886962890625, -0.038490056991577148, -0.20597805082798004, -0.0093569830060005188, -0.12077187746763229, -0.1122320145368576, -0.24381533265113831, 0.029602864757180214, 0.27780085802078247, 0.079379454255104065, 0.2031320333480835, 0.0502796471118927, -0.22102238237857819, 0.087079018354415894, 0.16680921614170074, 0.17126643657684326, -0.090464867651462555, 0.10579525679349899, -0.059989362955093384, 0.19597251713275909, 0.10642571747303009, 0.22518770396709442, -0.001431447803042829, 0.11795672029256821, -0.021042896434664726, 0.20584480464458466, 0.26082307100296021, -0.013397173024713993, 0.17476515471935272, 0.057148020714521408, 0.052971430122852325, -0.15159152448177338, 0.091228127479553223, 0.10177276283502579, 0.20875789225101471, 0.33104729652404785, 0.030223816633224487, 0.085558615624904633, -0.22353826463222504, 0.43469780683517456, -0.095370538532733917, 0.061611674726009369, -0.15810582041740417, 0.21156173944473267, -0.20933739840984344, 
  -0.15430366992950439, -0.051805812865495682, -0.19469496607780457, -0.2722032368183136, 0.041431017220020294, 0.30428832769393921, 0.096867121756076813, 0.1960807740688324, 0.28447702527046204, -0.1411878764629364, 0.15810057520866394, 0.087605476379394531, 0.049375176429748535, -0.078321032226085663, -0.052769377827644348, 0.28999406099319458, -0.034512434154748917, 0.006316174753010273, 0.010473586618900299, -0.077628113329410553, -0.12208433449268341, 0.44375112652778625, 0.27231618762016296, 0.36050823330879211, 0.0032492154277861118, -0.19178617000579834, -0.20021840929985046, 0.23427106440067291, -0.030808113515377045, 0.13236524164676666, 0.17753933370113373, 0.10622930526733398, -0.038497231900691986, 0.0046922164037823677, 0.12564386427402496, -0.19212158024311066, 0.46742480993270874, 0.10813076049089432, 0.18319039046764374, -0.11313343048095703, -0.073823243379592896, -0.097778193652629852, -0.15366587042808533, 0.10736454278230667, 0.1181500256061554, -0.19069443643093109, -0.22318607568740845, 0.026533385738730431, 0.034555856138467789, 0.1804872453212738, -0.022722357884049416, -0.049686841666698456, -0.095859646797180176, 0.033787790685892105, 0.19028234481811523, -0.068906858563423157, 0.1318715512752533, -0.24872350692749023, 0.12316519021987915, -0.0023033041507005692, -0.027652464807033539, 0.040173102170228958, 0.12091653048992157, 0.089423239231109619, -0.046681534498929977, 0.28677511215209961, -0.32854184508323669, 0.31714782118797302, -0.0033865170553326607, 0.14579558372497559, -0.12021925300359726, 0.084957055747509003, 0.073719002306461334, -0.13381566107273102, -0.045031577348709106, 0.17125372588634491, 0.065003566443920135, -0.15805692970752716, -0.17190912365913391, 0.0056645856238901615, 0.081826001405715942, -0.056041941046714783, 0.12329432368278503, -0.2030070573091507, 0.15666307508945465, 0.24204114079475403, 0.0080272899940609932, 0.091241419315338135, -0.26225376129150391, 0.10822918266057968, -0.077884383499622345, 0.18400348722934723, 0.042410973459482193, 0.076985418796539307, 0.33308145403862, -0.23325492441654205, -0.084586970508098602, 0.25732704997062683, -0.097549885511398315, -0.1728275865316391, 
  0.020266430452466011, 0.19347743690013885, -0.17063595354557037, -0.07032303512096405, 0.016906946897506714, 0.32177275419235229, -0.13723412156105042, 0.0098151788115501404, -0.021677780896425247, 0.266823410987854, -0.0053973561152815819, -0.22850243747234344, -0.067430965602397919, 0.15004324913024902, -0.035032302141189575, 0.12264134734869003, -0.058797255158424377, -0.2163863480091095, 0.15641041100025177, 0.14986060559749603, 0.17519588768482208, 0.25653490424156189, -0.00808701291680336, 0.46042138338088989, 0.20372514426708221, -0.15925957262516022, 0.017180433496832848, -0.18213346600532532, 0.30915701389312744, 0.064882047474384308, 0.25183373689651489, -0.18412454426288605, -0.065391935408115387, 0.028018761426210403, 0.063404150307178497, 0.10150232166051865, 0.29799243807792664, -0.12876182794570923, 0.44857847690582275, 0.19894810020923615, 0.27579450607299805, 0.036515399813652039, -0.14814086258411407, 0.39729174971580505, 0.092549979686737061, -0.2869260311126709, 0.014837371185421944, -0.095437772572040558, -0.22993636131286621, 0.10256465524435043, 0.092139318585395813, 0.24913227558135986, 0.19198286533355713, -0.0043583009392023087, 0.31096652150154114, -0.20053258538246155, -0.053642589598894119, -0.18849867582321167, 0.1950724869966507, -0.13855129480361938, -0.01313618291169405, 0.3686336874961853, -0.18342903256416321, 0.18392647802829742, -0.1029273048043251, 0.16215161979198456, 0.053082283586263657, 0.27812886238098145, -0.1418316513299942, 0.078777968883514404, 0.17814213037490845, 0.0062391231767833233, 0.10324926674365997, -0.4671129584312439, 0.10066045075654984, 0.035861559212207794, 0.1613679826259613, -0.071867212653160095, 0.0021555388811975718, -0.18006563186645508, -0.087885290384292603, -0.061798777431249619, 0.27897602319717407, 0.24412289261817932, -0.021692145615816116, 0.17655360698699951, 0.030542612075805664, 0.023945897817611694, -0.023339122533798218, 0.30868694186210632, 0.14413295686244965, 0.0393843874335289, 0.13385312259197235, -0.093184895813465118, 0.24629905819892883, -0.16204123198986053, -0.14789937436580658, 0.1825682669878006, -0.23495464026927948, -0.148980513215065, 
  0.10901069641113281, 0.26821646094322205, -0.22499798238277435, -0.0034670829772949219, -0.016258593648672104, 0.065408244729042053, -0.041259255260229111, -0.062202896922826767, 0.27673393487930298, -0.20379282534122467, -0.24084331095218658, 0.17997105419635773, -0.12617895007133484, 0.12254348397254944, -0.11351718753576279, 0.20581486821174622, -0.26022863388061523, -0.076110132038593292, -0.24857021868228912, 0.21672971546649933, 0.12837678194046021, 0.16210544109344482, -0.14354850351810455, 0.20928555727005005, -0.15731018781661987, -0.035248391330242157, -0.24091096222400665, -0.2402959018945694, -0.091265760362148285, -0.10776181519031525, 0.26043233275413513, 0.17571040987968445, 0.14694862067699432, -0.056630108505487442, 0.074982441961765289, 0.14289766550064087, 0.38369870185852051, 0.13491003215312958, 0.38207334280014038, -0.021501172333955765, 0.25818285346031189, 0.010264295153319836, 0.095011800527572632, 0.22928211092948914, 0.0017613470554351807, 0.12299133092164993, 0.034249976277351379, 0.17616336047649384, -0.058334961533546448, 0.035361412912607193, -0.18698354065418243, 0.087744221091270447, -0.09205743670463562, 0.15537393093109131, 0.29985153675079346, 0.10780426114797592, -0.044474206864833832, -0.20165917277336121, -0.061419427394866943, -0.031320225447416306, 0.12288746982812881, 0.12569217383861542, -0.12639725208282471, -0.10186785459518433, -0.17850153148174286, 0.071106091141700745, -0.17347550392150879, -0.011833975091576576, 0.12032851576805115, 0.27257460355758667, -0.045014575123786926, -0.016075169667601585, 0.1191364973783493, 0.052011381834745407, -0.31481492519378662, -0.026848537847399712, 0.010269243270158768, 0.11984623968601227, -0.027087518945336342, -0.28380900621414185, -0.076251231133937836, 0.011199887841939926, 0.0062315892428159714, -0.14810033142566681, -0.10110028833150864, -0.24829666316509247, -0.14129941165447235, 0.0200003981590271, -0.063926845788955688, 0.19136494398117065, -0.014871803112328053, 0.11927925795316696, 0.076497390866279602, 0.020450126379728317, 0.12097056210041046, -0.11702802777290344, 0.16441731154918671, 0.11518795043230057, -0.12436137348413467, 0.15198449790477753, 
  0.10983645170927048, 0.17350515723228455, 0.1583770364522934, 0.35297530889511108, 0.36392563581466675, -0.060974791646003723, 0.12161924690008163, 0.036520335823297501, 0.26392576098442078, 0.21666868031024933, -0.14881984889507294, 0.12968143820762634, 0.013511365279555321, 0.11775179952383041, -0.014907285571098328, 0.094399005174636841, -0.042335063219070435, 0.10115586966276169, -0.016148274764418602, 0.076834790408611298, 0.29107093811035156, 0.0073789553716778755, -0.27736136317253113, 0.36514830589294434, -0.28562220931053162, 0.02919791080057621, 0.20343336462974548, -0.28013813495635986, 0.39386937022209167, 0.10478862375020981, -0.057795807719230652, -0.16968251764774323, 0.24288791418075562, 0.192721888422966, 0.15318296849727631, 0.011670647189021111, 0.22710564732551575, 0.036131005734205246, 0.37000495195388794, -0.20122809708118439, 0.26301780343055725, 0.076203204691410065, 0.1419864296913147, 0.16967032849788666, -0.12607872486114502, 0.02611873485147953, 0.38188070058822632, 0.18437951803207397, -0.048180609941482544, 0.12367764860391617, -0.023263158276677132, -0.035093292593955994, -0.02176997996866703, -0.18044827878475189, 0.046907208859920502, -0.024287059903144836, 0.31397545337677002, -0.21787513792514801, 0.10188604146242142, 0.073001265525817871, -0.25497063994407654, -0.12847475707530975, -0.024756422266364098, 0.31666579842567444, -0.24017366766929626, -0.020452190190553665, 0.071248508989810944, 0.11036206036806107, -0.21671533584594727, 0.35229188203811646, 0.002735629677772522, -0.10134298354387283, 0.28619521856307983, -0.12079316377639771, 0.17432884871959686, -0.14675657451152802, 0.18480920791625977, -0.02301364578306675, 0.11200975626707077, -0.23952473700046539, -0.068286202847957611, 0.1471983939409256, 0.35608172416687012, -0.015440395101904869, -0.14146977663040161, -0.077441386878490448, 0.11049240827560425, -0.067132711410522461, 0.36897110939025879, 0.28183457255363464, 0.32689350843429565, 0.079471796751022339, 0.42453768849372864, 0.023637212812900543, 0.32074716687202454, -0.100026935338974, -0.28054133057594299, -0.18517030775547028, -0.039225012063980103, -0.16336393356323242, 
  -0.10245788097381592, 0.16436274349689484, -0.14198315143585205, -0.28021696209907532, -0.16328734159469604, 0.19993582367897034, -0.08658936619758606, -0.1514899879693985, 0.28263652324676514, 0.18169610202312469, 0.1258639395236969, 0.23747739195823669, -0.027113787829875946, 0.041715402156114578, -0.050336942076683044, -0.029399029910564423, -0.16471374034881592, 0.016738811507821083, -0.11677085608243942, 0.16064256429672241, 0.20143023133277893, 0.37668305635452271, 0.33668890595436096, -0.3833695650100708, -0.20202068984508514, 0.1566200852394104, 0.15787340700626373, 0.063042409718036652, -0.26645702123641968, 0.20143231749534607, 0.10426555573940277, 0.18870054185390472, 0.17486394941806793, -0.043030697852373123, -0.30261558294296265, -0.19364418089389801, -0.20549964904785156, 0.045829985290765762, -0.19657814502716064, 0.17522028088569641, 0.087106630206108093, -0.023896697908639908, -0.1196112260222435, -0.030315592885017395, -0.20890451967716217, 0.23461763560771942, -0.15342631936073303, -0.014466826803982258, 0.068751692771911621, 0.0501583032310009, 0.11893952637910843, 0.026225946843624115, 0.041399378329515457, 0.17533944547176361, 0.31481543183326721, 0.07953382283449173, 0.19708767533302307, 0.044354699552059174, 0.0045014838688075542, 0.011446096003055573, 0.17380097508430481, 0.2845255434513092, 0.087366744875907898, 0.12502260506153107, 0.17162513732910156, 0.0061793141067028046, -0.12716966867446899, 0.073922827839851379, 0.12495799362659454, 0.032014656811952591, 0.0042667388916015625, -0.12118189036846161, 0.026360658928751945, 0.15132540464401245, 0.073712654411792755, 0.1377912312746048, 0.10536029934883118, -0.00064904498867690563, -0.19634397327899933, 0.10004199296236038, 0.22324319183826447, 0.12727420032024384, 0.244676873087883, -0.13053418695926666, 0.1347605288028717, 0.26198714971542358, -0.17810893058776855, 0.22968348860740662, 0.12126177549362183, -0.014739446341991425, -0.31126126646995544, 0.27958297729492188, 0.030506612733006477, -0.19344176352024078, -0.017723804339766502, -0.079328402876853943, -0.13486689329147339, -0.14711903035640717, -0.087671197950839996, 0.19071440398693085, 
  -0.15018735826015472, 0.31168586015701294, 0.012032072991132736, 0.094334371387958527, 0.41466963291168213, 0.11728160828351974, 0.12215660512447357, -0.20053379237651825, 0.023619096726179123, -0.13460201025009155, 0.075341299176216125, 0.18445311486721039, 0.26435017585754395, 0.25455093383789062, -0.036880463361740112, 0.1414712518453598, -0.21300195157527924, 0.20353436470031738, -0.023191025480628014, 0.045839544385671616, -0.1797168105840683, 0.12686963379383087, 0.086956799030303955, 0.20265279710292816, 0.1407281905412674, -0.080182097852230072, 0.055742021650075912, 0.18137532472610474, 0.28050890564918518, -0.010892705991864204, 0.25594323873519897, -0.12337256968021393, 0.0032899922225624323, 0.065719299018383026, 0.34118169546127319, -0.028674006462097168, 0.23332144320011139, -0.092991478741168976, 0.15637221932411194, -0.1692444384098053, -0.040328215807676315, 0.25896304845809937, 0.022831911221146584, -0.17881494760513306, -0.0093428194522857666, -0.12452436983585358, 0.001946960692293942, -0.11124691367149353, 0.060998659580945969, -0.16764050722122192, 0.071304276585578918, 0.25007086992263794, 0.048453964293003082, -0.20681501924991608, 0.10153250396251678, 0.026574324816465378, 0.03474772721529007, 0.055499725043773651, 0.087772630155086517, 0.018186196684837341, -0.12380284070968628, -0.1840878427028656, -0.021255090832710266, 0.32969129085540771, -0.076103031635284424, -0.036135081201791763, -0.06429736316204071, 0.035593621432781219, 0.099700272083282471, -0.13291504979133606, -0.20586057007312775, -0.16293421387672424, 0.051987994462251663, -0.21627151966094971, -0.15310598909854889, -0.2043403685092926, 0.066691957414150238, -0.044690810143947601, -0.082887008786201477, 0.068811617791652679, -0.18336336314678192, -0.13766433298587799, 0.07999749481678009, 0.17863428592681885, -0.18399105966091156, 0.067542895674705505, -0.17107668519020081, -0.03584955632686615, 0.040135957300662994, 0.21101467311382294, 0.16881464421749115, 0.21159163117408752, 0.099523440003395081, 0.17916341125965118, 0.33495482802391052, -0.091151468455791473, -0.14917689561843872, 0.20200598239898682, -0.069991365075111389, -0.051541179418563843, 
